#ifndef KPNN_H
#define KPNN_H

#include <math.h>


// use net Pnet => 128x16x2 => opS /egS outputs
#define N_INPUTS   (64 * 2)
#define N_HIDDEN   (8)


// net stuff
double OUTPUT_WEIGHTS[N_HIDDEN] = {-0.8145291493693437, 0.959431936576446, -0.7574406508434062, -0.7095358522659383, -0.8227433141514255, 1.156263518924896, 1.01859212589248, -0.7425710620875994, };


double HIDDEN_WEIGHTS[N_INPUTS * N_HIDDEN] = {0.2222252891968122, -0.05396995579543051, 0.02260294813783975, -0.1288709247619244, 0.1352155272081567, -0.01340091019561551, -0.4522297251747128, -0.4161950680037007, 0.0224060877046256, -0.6914940015088755, 0.326760669208886, 0.1142227695751007, -0.3701099528293975, -0.5967001180287878, 0.3311497104520869, -0.3991302839317783, 0.05872427479096991, -0.4385011051470141, 1.160774985090454, 1.118506546055073, -1.352736695254917, -0.5720618509836929, -0.8667411794961876, 0.4514462724763008, 0.7411709715413739, -0.6498437540905054, 0.7162607025290059, -0.8780957638379803, -0.7208680130967181, -1.326572336263492, -0.3932872353118808, 0.4559629996170367, 0.7005913107032975, -1.123712459713249, -0.7540310978152608, 0.4622832267529516, 0.8174618411816658, 1.001347296548323, -0.08647146445750004, -0.6406082141921764, 1.284032347509783, -1.303125746771456, -0.8798019483572589, 1.14125244827276, 0.9093288554375203, 0.6904836008479236, -1.243929502896478, -0.7026899678458641, 1.289560611316069, 1.333786629495503, -0.811491592869694, -0.4167138076080258, 1.115496339310428, 0.3831611802288122, 0.4515864454351049, -1.204712368887772, 0.2333342506239816, -0.03976034072216617, 0.1247930236276207, -0.2602487363667454, -0.01253536414007439, -0.1677237607854063, -0.03160643416066022, 0.4607196566465868, 0.06236240340506771, -0.4318350562508382, -0.4308097953585953, -0.2209523430657351, 0.2157065969499324, -0.2385343149018168, -0.1399788165651163, 0.1459513202523586, -0.1878613902665029, 0.3340258336784439, 0.05989547239611648, -0.380075236260926, -0.329201093329676, 0.1696628703128839, 0.2710318289562277, -0.3933724145839793, 0.1496398214481957, -0.1866699083180492, -0.4564682529105192, -0.08864013319306085, -0.1573040395310633, -0.3586763259296661, 0.06044008050134408, -0.4239697889070817, 0.1015633333481678, -0.3147668963366965, -0.1842185252738271, -0.4109720307919067, 0.01750934334355841, 0.2841750410311739, -0.4502523741453198, -0.4201282537170352, 0.3523399852459971, -0.3810621695039152, -0.141080596317109, 0.06804658173026823, -0.1195964839400707, 0.218940587583436, -0.2860020980173732, 0.1925421262590876, 0.05296642079621855, 0.2738933748444046, 0.3124668904638229, 0.2237653279322038, -0.05644375530837276, 0.0834987194200506, 0.3303929138138857, -0.4068039338601771, 0.3968288115676626, 0.3739246609033666, 0.00455593341242333, -0.2604752284290619, -0.4847516650262995, -0.4350039865518939, -0.1844450168704823, 0.1168116687875295, -0.2497708824229291, 0.1313364583213518, 0.2058396379956229, 0.2677384613862906, -0.08448850064747426, 0.2555872643159643, 0.3476102081349167, -0.2321485158671385, 0.3745250952777104, -0.2934703881821923, 0.335898066328791, -0.2450713891280216, 0.4254701994012437, -0.4501040316885822, 0.4474707375967273, -0.02156337980253775, 0.7981623780324341, 1.113741387119538, 0.4295211768201335, 0.1150202759384658, 0.6972447752676151, 0.3864085019088392, -0.7402914080290097, -0.6708316386574404, 1.260326409064662, 0.5864142983264727, -0.8107666078981539, -0.2422954441325206, 1.283902022153597, 0.0741056088229864, 0.1967056496901605, -0.9205429587494669, -0.9271276210857068, 0.5982317213806503, -0.4057517670103499, 0.6900773938923939, -0.08972345258142984, -0.1786608304417148, -0.6745568094857187, -0.3527876072266695, -1.035361156757136, 1.299714820492969, 0.4832679285147082, -0.4261413793705036, -0.3579686458608014, -1.276877532729644, 0.7598908123896221, 0.6672294448618086, -0.5169308290540067, 0.9621062580613188, 0.4407794504539482, -0.09836021280360216, 0.9946327054807748, -0.5899430026990302, 0.7743693614574456, 0.9012223604297281, -1.041137988186282, -0.4534511894123874, 0.8229793984334206, 0.5964242900436756, -0.6580623485931626, -1.346023005197781, -0.9307619229732385, 0.476181527124427, -0.2478092963564253, -0.1289099313453351, 0.4645790932535097, -0.2478028669710285, -0.3332385420022712, -0.4253765511910322, -0.3732713427735824, -0.3310375408413995, -0.479434129306783, -0.2438112072384968, -0.4033663402792841, -0.4835957381797935, -0.1668803345723452, 0.002741480945954777, 0.3360319965686798, -0.3300118338456433, -0.3889487501648016, 0.4230053191646027, -0.1497069861040018, 0.2519558815993163, -0.1294797033208793, 0.270863020220242, -0.20061996472097, 0.183132862524657, 0.171222956698026, 0.2685720477106851, 0.4258390301493178, -0.133072193541132, 0.2763435867504885, -0.1511320824041646, -0.01068597124455772, -0.4714657096059368, 0.2199579867161615, -0.04610687799104807, -0.2192685761113039, 0.3867194451795516, 0.0285165708179197, -0.09253991888488644, -0.4443180961275092, 0.04908244197679795, 0.163648874342278, -0.347684435941132, 0.06548670426266578, 0.4967685402355942, 0.1550570450048228, -0.09848129963431573, -0.3332432940757104, 0.2661082953056825, -0.175475980469713, 0.01704972028594914, 0.01806417690499879, 0.1950443166750689, -0.2120872599594701, 0.3174442126496901, -0.1218228212659354, 0.4591356972042172, 0.08601626036037519, -0.1959837911166176, -0.1739364963369149, -0.1376401528891363, 0.1528841269448791, 0.3153775324185274, -0.1091058620294117, -0.1271578863389594, -0.2307293455725207, 0.1716255618592843, -0.2404384411594078, 0.2977872257110603, -0.4209143570256021, -0.1847565368212557, -0.1531303323121417, 0.2427345177823373, -0.03244097276238767, 0.4123563719505241, 0.2395030575522701, -0.3773839277575649, -0.1861249276837916, 0.4062597639422211, 0.3887243680137789, 0.1383990923121567, -0.04513311638420698, -0.441060276410348, -0.1348730741606127, -0.07341830415611611, -1.129574143959871, -0.6421923935705344, 0.2019806523598164, 0.0256328537024692, -0.7689693801976725, -0.3573852248388429, 0.526408809117086, 1.022320621557813, -0.542013079860905, -0.7902999783254588, -0.9962079787125252, 0.05540466244017809, 0.5256639560859587, -1.052885895696906, 1.232668150375343, -1.03959614312822, -0.7376224948020893, -1.128070081504472, -0.2217388813632649, 0.3110450326464053, -0.07736256712522288, -0.557346935076685, -1.147457883015017, 0.8057690833984168, 0.7402872858509943, 0.4488745332832358, -0.5677601041588137, -0.4056729472501018, 0.8556511518226396, -0.9299914415178767, -0.5165610378310401, 0.8901010664706587, -1.218314987221252, 0.8607658858360652, -0.8174323050997135, -1.202715093187774, 0.8577485497558487, 1.062756568772883, -0.5341995128818879, -1.037909117240384, 0.6262131062704416, 1.214729941656984, 0.7506804226506947, -0.8462071546332951, -0.3381336027933907, -0.2242519882154893, 0.3217924902317079, 0.2780344578335222, 0.001474517631099792, 0.3787412163236836, 0.3617615461637087, 0.139557395428213, 0.1751929999679294, -0.431895293729331, -0.4084846544584654, -0.1220954524456036, -0.3368277646772693, -0.3181276115673257, 0.00392557983469477, 0.1650283092935702, 0.1056728403110396, -0.1588311636163067, -0.108882859632784, 0.2410938803763566, 0.3487700148712704, 0.4274549893697048, 0.392151717977669, -0.1472073819708114, 0.1364017034119003, 0.2117304795941946, 0.1686141796729593, 0.4088514204643906, 0.07267227935263526, -0.4344946467012608, -0.08357029807920113, 0.2345386770249059, -0.1587466344510888, -0.2617778078474933, 0.01257313485842809, 0.342727883180011, -0.3830365915238096, -0.1256653194435245, -0.01771472139177599, 0.2921564089097811, -0.05756061270719426, 0.07380062414975869, -0.3299390435358226, 0.1056116230811978, 0.2556730130480942, 0.1739865367645335, -0.2293600680908934, -0.1386541466408662, -0.4848446273174345, 0.161757072741984, -0.3975602662645096, 0.3639253880194973, 0.08921206211168881, 0.4945914517131594, -0.2832819939513141, -0.2743862349420721, 0.206321931307354, 0.3853321861873065, -0.3655348144776815, -0.2210057893400107, 0.450837539951707, 0.05089488790877855, -0.4864671127807662, -0.2079090949650431, 0.2891170805269466, 0.02610602254332323, -0.365181211785032, 0.4060804894687983, 0.40044070356546, 0.1171040672888533, 0.1982368983785794, -0.1571199091417342, -0.3090953085613881, 0.3682978553084181, 0.4484917139394636, 0.4465777044867061, 0.04228439160729031, -0.2808683541514297, -0.19207644215416, 0.05743976475551715, 0.03308133487664244, -0.6904742880479917, 0.1425933886514144, 0.00083641805942445, -0.9488517439411212, -0.7157294931600384, 0.5435546314896115, -0.3571322680865515, -0.1979455658784181, -0.5236174280396478, 0.6808350254231642, 0.7648128258458011, -0.9727370679798504, -0.6332442408093667, -0.5242239450920247, 0.5239999908732225, 1.283717839669774, -0.4526484932837944, 0.4300839104008871, -0.5234574131485702, -0.8355224522953369, -0.5792969295875168, -0.8646402976123401, 0.9997263270293387, 0.9333502973386493, -1.232066556794167, -0.6980548602351406, 0.5389027828427118, 0.3783345366280259, 1.317474927901393, -0.6112555866462047, -0.5627872168225249, 0.7278292201813195, -1.189893226972132, -0.6619587774839001, 1.006408856002939, 0.9659032711414973, 0.6779435937915839, -0.4633743700323718, -1.028396723947803, 0.5714432109071402, 0.6343475458214423, -0.5541209425704258, -0.7541678202112855, 1.038107899947863, 0.9197755677284555, 1.122788586504822, -0.7395292231497542, -0.03284599004911537, 0.3452762383247149, -0.05539773616725474, 0.4854206563836991, 0.1197853263559683, 0.1178328537465226, 0.1945919937894642, -0.2374077307700215, 0.2395551580654248, -0.1496589643180645, -0.0523163958230598, -0.419590892232764, -0.1859863645797531, -0.3097852961205809, -0.1978482230090761, 0.1880495276712112, -0.1458890436430876, 0.4939952273825161, -0.03295983724899587, -0.3439096318762329, -0.1184467764657209, -0.1426925271016977, -0.01851487509837135, 0.09929095236551527, 0.137845668773095, -0.2188672338234574, -0.3018966996119808, -0.1778123624053841, 0.3471241979147886, 0.4671073495257214, 0.4364394028375109, -0.1857217921343268, 0.3123835878504364, -0.1189583337954051, -0.200301136216289, -0.06783108579359531, 0.4988745204167788, 0.4942908580388365, 0.1947611834363831, 0.2384296784822036, -0.1553681067448892, -0.3575552123866766, 0.3188387867151009, 0.1586455291410189, -0.1673405085072576, -0.3790094362939752, -0.15330494318777, 0.1867704483153161, -0.3850142089114591, 0.3137352200288955, 0.3428608169047445, -0.003460984911518583, -0.3289573070728021, -0.1756540586592882, -0.4041700330116647, 0.3088883621659542, 0.1054787079829158, -0.2060667321579842, -0.36892400023943, -0.04739709456795693, -0.2389593826322627, -0.4324845978675804, 0.2668811137633776, -0.4265757947818264, -0.05144293119732424, -0.4334200224529113, 0.005593119890239584, -0.05256841078054553, -0.4391291648797361, -0.2996456966733773, -0.3141387322983419, -0.094497271158964, -0.1572009090600539, -0.4952999460489024, -0.4358517420179452, 0.1754585828983498, -0.3743093818772162, -0.08915668474005378, -0.1377709687863341, -0.2593235907886753, -0.1173306539746319, -0.263270947387481, 0.2692207086490594, 0.1797855401017902, -0.8243729366560223, -0.5207680566497211, -0.01088369436343303, -0.6501831798959945, -0.5943825251473234, -0.5122399644982, 0.9413285424829823, 0.7418201090257924, -0.9507115189309745, -0.6830179956551986, -0.8923660891011423, 1.205466150648696, 0.7747890411064049, -0.3867753779739954, 0.6529026798939401, -0.8719603700829929, -0.6803712491400282, -0.8688506150728559, -0.4664515315220852, 0.6742632281524882, 0.843451847283103, -0.402305153556169, -1.168154403056523, 0.9691541103071325, 0.3999021413401732, 0.9016823697817749, -0.3081300557537265, -0.450659771101202, 1.106767426888037, -0.7605629903514426, -0.3712638181583204, -1.07138579465606, -0.9274910493024501, -0.1529227034131329, -0.8099726280937094, -0.8005408395462102, 0.8763971629503567, 0.3586468123626365, -0.4125111407046853, -0.4279633690136711, 0.7130096128300019, 0.7565147102377594, 1.131194800404058, -0.5735839063721486, -0.130243156864421, -0.4235127172076668, -0.2379385054753806, 0.03714775039681595, 0.06143820218808865, -0.3505864459325496, -0.4526622518676623, -0.4489108244650581, -0.3990861279420025, -0.2670136703024683, 0.1664307679359013, -0.03674249422584774, 0.2808639424763918, 0.02244876908252424, -0.4498203261521739, 0.03383140337366208, -0.3843178050053855, -0.4672769293967992, 0.3162346546613772, 0.04196101359183013, -0.2802239422594308, -0.2664475970745308, -0.4047815082151357, 0.2424146354861625, -0.2616124445393739, -0.4635047521272231, 0.1681542055067393, 0.09762122509890292, -0.06078451199493584, -0.05444816292936361, -0.1221666106126116, 0.3089723316063044, 0.02203912032863087, 0.139894884377669, -0.1538799179968796, -0.4165226774832805, 0.2893084389107807, -0.1065421693988806, -0.3654335014826774, 0.3902223114344395, 0.1264441602986511, 0.3009972669188852, -0.1465201832570695, -0.09269189722495708, -0.1765539639985906, -0.09634050894358215, 0.4411395066143663, -0.06087176853831477, -0.06361743787472018, 0.2573741612757436, 0.4810892450535154, 0.1561586203315102, 0.490926564666874, -0.4236922631616202, -0.1014267441823272, -0.2706858803381612, -0.387197014823182, -0.4332725391412492, 0.326935345226403, 0.05201847364754347, 0.01227929839504849, -0.2952312658518699, -0.1390091947461521, -0.4656815812763206, 0.3446636189914605, 0.2071108872569682, -0.3822042582939399, 0.1339720574365799, -0.3994312821419124, -0.247637759310956, 0.02419436887101939, 0.2270128786224, -0.4466404923920708, 0.3776741860796112, -0.365679018602557, -0.1231944563906614, -0.218666322863971, -0.4245395119881907, 0.3159337755366851, 0.2177162397269701, 0.6174327927044201, 1.150823352905562, 0.7276836824850093, 1.177503433624268, 1.227139200834226, 1.126261883049779, -1.174246206887781, -0.1779383898843734, 1.192983713992277, 0.5381220267112297, -0.4361985374238856, 0.7052446367170608, 0.3753399713354911, 1.252934971411376, -0.7150556178391205, 0.1448117720575624, -0.7475454840635543, 0.8573819818768776, -0.7903983363939641, 1.060634216907113, -0.1551591868667763, -0.4440248747971465, -0.7302389766928974, -0.4812742371929492, -0.1355400445480103, 0.7322414597404212, 0.5399052621734834, -1.107195967672814, 0.4282779793824451, -1.351780378011214, 1.318142114124128, 0.008077555314181993, -0.5547555809358758, 0.6920088863996745, 0.6540222887224417, 0.07754777621365735, 0.4644558668114195, -0.6842713215035172, 1.0123180140066, 1.303630822824723, -1.120472721071718, -1.15714318766527, 0.6550847327315129, 0.6718612345777442, -1.257968391987451, -0.6667387748312017, -1.106278142709372, 1.055867461055583, -0.3093706773637658, 0.310936387074616, -0.09111059950250699, 0.4465606012132767, 0.3985458458301359, 0.3427249066730612, 0.2558513873982483, 0.3638294901996057, -0.08911860621958911, 0.4419477171925584, -0.3895531882948955, -0.44550163110043, 0.4439778225235538, -0.4252196265967654, 0.03094999423760453, 0.2430309484447497, -0.0870112048401549, 0.3311628330644047, -0.08458516867113541, 0.02364533279260866, -0.3155489949581907, -0.4260675427159609, -0.02652255237406242, -0.0822501432067948, -0.2293977000421834, 0.2747644385205416, 0.2358281215354, -0.1335848353959549, -0.03817527579989999, 0.4833494187255155, -0.4315180619859686, 0.1524540473019956, 0.2942858058001314, -0.02262866102281424, 0.09901464851527225, 0.192831651164606, -0.1799037548154144, -0.1451339645521408, 0.05666114136421174, 0.2309776394306578, -0.2031862473595824, 0.1671079535349775, 0.2854760087958891, -0.2592084248360286, 0.2418883274038733, -0.1835739974321676, 0.4838225240743824, -0.3451228779019428, -0.352411164367763, -0.100762644596753, 0.1785224553563271, -0.1679601588602924, -0.02683018684705263, -0.3480000974833966, 0.2497896979329128, 0.2437721135764253, 0.4267643415028063, -0.01438218053168716, -0.3898127222851909, -0.1114109347627549, -0.03103276180617176, -0.3213307838054983, -0.4589568874607594, -0.2367469560060403, 0.1560405551716874, 0.140057761054513, 0.456084695624227, 0.4761368008219343, 0.4949237969680335, 0.01274583698843879, 0.2071144402525921, -0.2082624503915489, -0.3201462094765838, -0.007409551417180138, 0.03252912523808382, 0.4217421179272896, 0.3090164516163135, 0.01635164931246624, -0.4233807599746533, 0.4566052877142119, 0.3207319840977498, 0.5397960458625382, -0.3062380897106728, 0.2977048978277647, 1.260949024636807, 0.3922485711717598, -0.3991174159200643, -0.1404312793415328, 0.4983760828670713, 0.3435624828241139, -1.131313028830472, -0.3607597227407562, 0.7751999308604454, 0.4908516263074164, 0.6100819414262373, -0.8969150415678394, -0.4502131805205239, 0.5661703746585046, -1.300248192746772, 1.252318012614616, 0.3199736122870173, 1.114488296166677, -0.4677873900322277, -0.1958895290329957, -0.5313465361001541, 1.076539989636918, 1.180502515673869, -1.291526460874196, -0.8616888131375998, -0.4504919822697105, -0.512752781545035, 0.5085180980436474, -0.6953433696391383, 0.6613346691706692, 0.8972935500337316, -0.2187363331232366, -0.8178270074292214, 1.02975202516592, 0.7532998929142106, 1.223828410437241, -0.4350210516629236, -0.7318093576712802, 1.216833315829242, 0.69385200904186, -0.468231216393784, -1.234482338956918, -0.9362475451763964, 1.142922109095586, -0.1683255497684356, -0.02888484649773915, 0.1876565244457016, -0.4432220882471753, -0.2682056244314674, 0.3779137506512523, 0.4617351642631624, -0.0149359533167146, 0.1007001025605482, 0.2884345342351284, 0.04735016941435177, 0.3398381037823102, 0.1917531446981026, 0.06624157985963003, 0.4945651097197855, -0.1497865494572495, 0.3737781186931665, 0.03805093306025997, 0.4158153556826596, -0.2802505156864648, -0.2859323116885183, -0.1846767997763478, -0.4102265038109508, -0.3671973472774016, 0.4373260507999575, 0.4528173939105204, -0.0270749565805658, 0.3228670194851547, -0.4278657803907365, 0.3904754155736768, 0.1120038673337567, -0.09619132969351085, -0.1384094309240623, -0.2003396086862029, -0.0394134179406862, 0.09338494511013151, -0.3224258580349506, -0.07767825367752379, -0.4215510082065831, 0.2782742449912589, -0.2892437199080566, 0.12579916167343, 0.1181123483079077, 0.4025094252557072, -0.3079592589326013, 0.1126774580276932, -0.2472771242015422, -0.4341811402394349, -0.3492716089120468, -0.3314617685188826, -0.2144316554602383, -0.1352039206005651, -0.01613856782956913, -0.1246581588055278, -0.002401267412305508, -0.07881251702961167, -0.1718407653606686, 0.4705237764727901, -0.2559454980101182, -0.09970654528574396, 0.3609991920464668, 0.3560583697892997, 0.3041021250207453, -0.2774102393432568, -0.3442812388969032, -0.2353112929199409, 0.315974706232536, -0.1667070964661925, 0.1870104538681965, 0.3944236980259529, -0.388432851940595, 0.3977667344258012, 0.02022285969938287, 0.229679496832974, 0.3002761592158471, 0.2122636012324428, -0.1576430451393328, -0.4470009649856952, 0.2780824614586693, -0.006914654051379587, 0.006142240733358492, -0.847323751415864, -0.05305616439816803, 0.6163033581755902, -0.9148138785270932, -0.9983319250251839, -0.02556604667379438, 0.2355380625320465, -0.4585973803830676, -0.9198406315733703, 0.4580092353193722, 0.4143224481221932, -1.127112206287372, -0.3822568307678081, -0.9442111337646885, 0.6729757410071712, 0.590041727613437, -1.128243092397304, 1.069521789716808, -0.4305624531348408, -0.4748671563162784, -0.4622568463696655, -0.5327584358387863, 0.804279798150228, 0.08857378673811256, -0.7325103538875013, -1.001326675910186, 1.253124809026927, 0.6485899239124679, 0.4843612155271938, -0.9613883734984401, -0.3314860190273902, 0.5480056061407302, -1.103511331097614, -0.7525793998574757, 0.9869211845414281, -0.7479055054652766, 0.8918440930740742, -0.9534207122518935, -0.4220275236187557, 0.4521684405024808, 0.921610475193601, -1.235016131337749, -1.028573908546537, 0.8931114216604235, 0.8821476187685237, 1.061357751031262, -0.5782018499751419, 0.2539287944109779, -0.07672102776203349, 0.1988311413204443, 0.3739200867125392, -0.2494431602533176, 0.01984449872739824, 0.01413423871348346, 0.3075142040883723, -0.3588659846498007, 0.3666119919468704, 0.2068285232907294, 0.3154225679186278, 0.4971722061732655, -0.4007718115582931, 0.2112483865168171, -0.3086167736019086, -0.1504907201279377, -0.1875270957534794, 0.3245868942814818, 0.45527053016949, -0.4597163959218731, -0.2750575564685546, 0.387035715341119, -0.3612650115328212, 0.2927433307248835, -0.4941959725665841, -0.0361145727970239, -0.1679083209801039, 0.0341652280344466, -0.3285463195427071, -0.3923238026408123, -0.2119059775545755, 0.09473265316092067, 0.3065073391452932, -0.3379858908420363, 0.3452894933732643, -0.1736481621273086, 0.1761483478714471, 0.1528036974616366, -0.032514146311448, 0.04276033981831762, -0.140367779247634, -0.2170915788584815, 0.03993254599158302, -0.04113959034026582, 0.4941568081239969, 0.2313157723896744, 0.3083696899974577, -0.1933702876294825, 0.05590266667115629, 0.2636402201669478, -0.1530866830856943, 0.280845110668263, 0.1506759355080667, -0.0143516941528542, 0.07358844092748523, 0.1564799629414826, 0.4495337335157831, 0.4056801204130427, -0.3093548090240708, -0.379012586026924, -0.4866436822277698, -0.02126078657864627, 0.2157200675996579, 0.3198636569175234, 0.1407533230449787, 0.06100956050726097, -0.3537845052097852, -0.1830983290835742, -0.2861867420311024, 0.1137013484787668, 0.3596620107347435, };



double sigmoid(double x){
    return 1 / (1 + exp(-1 * x));
}

#endif