#ifndef KPNN_H
#define KPNN_H

#include <math.h>


// use net Pnet => 128x16x2 => opS /egS outputs
#define N_INPUTS   (64 * 2)
#define N_HIDDEN   (16)

int OUTPUT_BIAS = 1;
int HIDDEN_BIAS[N_HIDDEN] = {268, -75, -300, -193, 45, -159, -239, -312, -144, 94, -281, -277, -290, -376, -212, 147, };
int OUTPUT_WEIGHTS[N_HIDDEN] = {0, 3, -1, 2, 3, -0, 6, -2, 2, 1, -2, 1, -1, 2, -2, 1, };


int HIDDEN_WEIGHTS[N_INPUTS * N_HIDDEN] = {109, -173, -295, -353, 361, -330, 309, 366, 157, -76, 223, 293, 63, -260, 390, 162, -34, 79, -189, 362, -147, -112, 143, -85, -352, -161, -58, 39, -328, -285, -225, -152, 366, 377, -105, 357, -389, -213, -40, 148, 117, 242, 64, 242, 38, -332, 18, 61, -197, -121, 21, -302, 180, 225, 6, -120, 108, -30, 304, 188, 83, 142, 73, -281, 84, 356, 116, 97, -252, -321, 306, -89, -31, -414, -265, 396, 138, -194, 63, 349, 94, 103, 100, 296, -82, -288, -221, -366, 66, 145, -147, 188, -105, 331, -30, 3, -50, -336, 159, 99, 206, 71, 41, -244, -305, -144, 214, 253, 57, -134, 202, -249, 411, -97, -318, 361, -359, 285, 362, -263, 32, -161, -18, -45, -224, 339, 361, 116, 60, 112, 253, 307, 217, 348, 125, 327, -216, -75, 167, 249, -147, -377, 27, 248, 373, -231, 217, -391, -329, 191, 199, -244, -365, -212, -245, 253, 161, -293, -370, -166, -125, -70, 190, 120, -114, -88, 76, 66, -108, 313, 418, -176, 7, -323, -303, -14, -116, 325, -347, 383, 123, 254, -243, -167, -341, 360, 128, 242, -319, 157, 132, -389, 135, -71, 157, -388, -101, 278, -268, -142, -166, 141, 66, 224, 229, 162, 236, 171, -259, 274, 151, -97, -219, -49, -243, -135, -91, 306, 133, -374, -328, 326, 105, 228, -136, -164, -117, -207, 180, 35, -273, 37, -238, 187, 320, 72, -396, 170, -162, 176, -284, 53, -289, -79, -395, -168, -194, 351, 226, 390, -388, 334, 323, -239, -175, 233, 18, 127, 90, 249, -238, 204, -90, -397, -376, -157, -245, -361, 60, -31, 244, 200, -336, -31, 139, 94, 251, 401, 63, -300, 34, -255, -348, -49, -113, 342, 242, -30, 83, 370, 251, -111, 171, -227, 314, 220, -354, -333, -104, 122, -292, 172, 341, -249, -260, 86, -109, 52, -274, 20, 156, 130, -222, -129, 136, 66, 249, -37, 68, -93, 376, -81, -178, 144, -273, -260, 397, 222, 236, 342, -66, 333, 109, 306, -318, -110, -347, -391, -13, -226, 4, 195, 311, 187, 131, -304, 335, -30, -290, -379, -72, -319, -44, 156, 213, -266, -72, -137, 351, -220, -191, 318, -296, -27, 238, 260, -96, -74, 243, 278, 83, 303, 91, -338, 116, 256, -259, -335, -191, -155, -313, 128, -76, -324, -132, 194, -209, -157, -338, 177, 16, -133, 84, -218, -124, 369, -370, 182, -113, -87, 78, 35, -160, 191, 86, -6, 18, 223, 56, 241, 131, 144, -407, -361, 219, 338, 211, 70, -228, -83, -144, 185, -148, 329, 378, 121, -46, 49, -76, -94, 362, 24, 346, 231, -170, -317, -167, -114, -66, -57, 177, -347, 136, 196, -305, -393, 131, -22, 68, -44, -29, 306, 197, 231, -115, -185, -37, 213, 229, -93, 163, -160, 335, 115, 120, -285, 161, 18, 12, -303, 352, -199, 201, 85, 45, -40, 115, 214, -27, 223, -234, 338, 106, 369, 161, 56, 235, 187, 333, 91, -298, 85, -12, -368, 255, -299, -211, -319, 151, -171, 237, -260, -336, 28, -116, -241, 369, 33, 377, 386, -150, 199, 327, 21, -182, -254, -323, -349, 327, -386, 118, -389, -222, 170, -354, -371, 262, 245, -305, -334, 118, -30, -198, -157, -394, 76, -1, 0, -293, -362, 5, -372, 210, 364, 32, -349, -282, 105, -277, -348, 117, -115, 130, -59, -347, 176, 5, -13, -316, -244, -300, -134, 136, -100, 146, -216, 41, 204, -138, -200, 239, -78, -180, 77, -92, 260, -219, -313, -23, 335, -254, 156, -177, -75, 152, 303, 159, -272, 337, 244, 331, -362, 177, -288, 384, 350, 339, -362, 159, -194, -156, -6, -224, -270, 133, -262, 380, -72, -178, -394, -109, -369, -209, -236, 402, 360, 120, 133, 147, -294, -342, -270, -265, 221, -136, 190, 183, -163, -102, -71, -342, -217, 12, 315, -69, 188, -344, 364, -256, 332, 23, 36, 1, -115, -154, -4, 302, 378, 200, -279, -282, 246, -130, 321, 87, 136, -211, 303, -11, 71, 331, 61, 284, 392, -31, 260, 180, -308, -137, 329, 68, 277, -376, 104, -238, -131, 170, 128, 290, -39, 241, 395, -182, -320, -40, -67, -173, 115, 303, 231, 236, 229, 328, 99, 223, 369, 376, 0, -358, -169, 372, -249, -291, 27, 261, 319, -72, -337, -322, -193, 12, 299, 246, -155, 29, -206, -161, 258, -30, -278, 83, -207, 353, 36, -88, -197, -31, -108, 248, -313, -210, -164, -189, 336, 258, 142, 261, -180, 187, -35, -345, 255, -143, 324, -268, -65, 129, -52, -193, -327, -296, -60, -169, -340, 349, -203, -119, 393, 108, 158, 91, -98, 39, 312, -180, 354, -310, -344, -251, -69, -333, 246, -217, -72, -218, 339, 262, 327, 346, 90, 385, -366, -364, 305, -286, 2, -289, -383, -5, -171, -182, -337, 141, 258, 51, 371, 199, -221, 72, 25, 100, 131, 312, -45, 138, -303, -115, -379, 388, -193, -216, 52, 302, -211, 367, 347, 218, 115, 51, 251, 380, -90, -21, -230, -236, -387, 182, 24, 240, 300, -367, -50, -316, 335, -62, -157, 67, 216, -139, 61, 64, -319, 147, -54, -135, 110, 378, 142, -144, -336, -34, 284, -42, 306, -348, -225, 10, -132, 192, -168, -221, -133, -158, 291, -189, 169, -254, 273, -376, -344, 395, -246, -250, 139, 92, 5, -151, -313, -291, -241, 188, -282, -378, -244, -365, 119, -96, -328, 382, 159, -99, 201, -368, -224, 104, 287, 341, -102, 160, 369, -47, -209, -289, 80, 305, -148, 98, 211, 394, -142, 349, 181, -27, 12, -10, -347, -275, -37, -279, -301, -285, -324, -49, -260, -159, 100, -387, -221, -387, -172, 202, -40, -332, -49, -373, 49, -150, -196, -156, -159, 67, 247, 68, -365, -118, 111, 143, 6, 116, 275, -227, 219, -14, -208, 7, 234, 309, -317, 71, 324, -82, -124, -108, -8, -112, 387, -369, 145, -197, 349, 42, -77, -169, 188, -37, 101, -134, 159, 187, 380, 28, -0, -153, -379, 188, 255, -94, 113, 335, 363, 28, 287, -160, -37, 341, 122, -62, 19, 329, -197, 405, -47, 99, -189, -291, 135, -2, -357, -126, 210, 69, -59, -170, 310, 386, -396, -174, -113, -235, 213, -156, -160, -234, 78, -145, -289, 247, -143, -217, 161, 55, -217, 177, 232, -323, -62, 400, 60, -32, -115, -123, 89, 223, -281, -337, 237, 195, 318, -297, 388, 146, 398, 271, -40, -256, -269, -278, 370, -36, -102, -201, 71, -276, 3, 335, -195, 337, 323, 274, 328, -226, 189, 21, 51, 308, -265, 356, 103, -343, 90, -286, 199, 84, 365, -243, 207, 119, -126, -175, 129, -179, -348, -206, -49, 41, 174, 146, -39, 104, -367, 341, 309, -151, -404, -397, -255, -289, 332, -110, -220, -319, 27, 19, 148, -367, -183, -393, -207, -255, -166, 348, -24, 361, 170, -26, -13, -68, -270, -4, -354, 221, -53, 6, -334, -69, 20, 266, -297, 402, -216, -95, -310, -156, 304, 239, -127, -266, 258, 74, 334, 149, -349, -93, 93, 223, 279, 125, -232, 42, -287, 272, 330, -280, -165, 368, -300, 323, -86, -182, 266, 43, -306, 352, -70, 398, -163, 199, 194, 140, 349, -226, 342, 13, 82, -325, -161, 374, 215, -317, -309, -59, 299, 345, 31, -216, -16, -263, 77, 224, -112, 375, 274, -358, -45, -211, 56, -191, 46, -198, 317, 397, -54, -119, -347, 45, -63, -116, -329, -282, 378, -262, 60, 286, 146, 134, 84, 125, 262, 192, -384, 201, 162, -33, 215, 157, -216, -156, 341, -119, -323, 269, -92, -296, -254, -56, -219, -251, -92, -104, -114, -130, -330, -15, 215, 213, -264, 352, -54, 28, 164, -15, -169, 377, 327, 402, 115, -287, 274, 45, 59, 399, -69, -75, 97, -308, -86, 273, -179, -165, -281, -285, -266, -248, 69, 319, -22, -196, -108, 291, 193, -391, 297, 29, 349, -172, -327, 58, 373, 356, -307, -405, -21, -371, 386, -338, 183, 349, 332, -398, -214, -346, 169, -65, 231, -166, 312, -192, -319, -221, 177, 284, 260, -270, -92, -144, -411, 7, 310, 387, 405, 58, 60, -46, -255, 60, 11, 322, -345, -58, -29, -157, -360, -266, -187, 290, -33, 150, 166, -301, -22, -51, 382, 266, 79, 355, -250, -266, 386, 113, -262, 373, -239, -149, -57, 349, -42, 327, 272, -6, 333, -187, 238, 367, -366, 107, -99, -353, 309, -316, -285, -109, 29, 172, -235, 144, 99, -104, 277, 86, 40, 75, -286, 171, 314, 43, -235, -144, -364, -363, -87, 12, 332, -239, -20, 349, -83, 285, 28, -178, 5, 158, -247, 73, -82, -89, 267, -358, -155, -211, -225, 309, 271, -124, -297, -187, -8, -78, -254, -326, -414, 47, 107, 344, -136, -324, -67, 191, -0, 384, 41, 35, -212, 193, -281, 93, 143, 412, -242, -386, -210, 413, -47, 109, -117, -255, -27, -78, -303, -209, 3, -269, -136, -302, 138, 142, 214, 115, 370, 265, -265, 20, -80, -86, 271, 48, 58, 32, -310, 230, -305, -120, 228, 47, 32, 157, -165, -376, -311, -40, 244, 84, 75, -259, 182, 255, -96, -6, -50, -116, 321, -276, -54, -155, 38, 271, 280, -285, -103, 365, 9, -7, 282, -190, 98, 384, 16, 331, 56, 96, 335, -82, -210, -308, 40, 44, 289, 335, 71, 324, 289, -3, -331, 290, 231, -224, 162, -239, -108, 114, 180, -66, -287, -269, 150, -149, 187, 235, -192, -174, -81, 209, 181, -195, 241, 231, -139, 162, -147, 336, 92, 187, 406, -174, -275, -116, 2, 294, -332, -57, -13, -91, 267, -247, 16, -337, 13, 240, 296, -143, -323, -206, -345, -121, -374, 300, 146, -137, -270, 401, 239, -115, -189, 215, 85, -69, 117, 121, 255, 180, -351, -156, 118, 311, -357, 188, 19, -298, 27, -88, -33, 108, -261, -339, 370, -245, 18, 123, 31, 162, -224, -138, -384, -350, 137, -242, -23, -160, -52, -182, 59, -9, -275, 262, 341, 220, 37, -32, 317, -352, -86, -117, -210, 55, 398, -230, 216, 3, -31, 251, 197, -236, -288, -115, -180, -104, 35, -188, 131, -10, -320, 246, 363, -207, 79, -58, 396, -300, -60, -52, 195, 234, -137, 369, 319, -140, 231, 113, -114, 206, -29, -300, 344, -273, -48, 205, 50, -20, -378, 237, -404, -298, -292, 31, 341, 202, 370, -5, -70, -96, 336, 176, 174, -171, 174, 103, -282, 8, 275, -32, -214, 291, 49, 185, -388, 47, 8, -302, -333, -322, 332, -343, 224, 67, -284, 167, -147, -330, -247, -165, -389, 135, -389, -166, -20, -172, -25, 52, -151, -165, 73, -336, -280, -273, 276, 193, -169, 338, -86, -96, -407, 272, 400, 216, -41, -293, -363, -169, 208, 256, 93, -107, -21, -250, 108, 376, -44, -317, -292, 240, 364, 161, -49, 114, -45, -174, -125, 145, 186, -185, 88, 217, -274, -275, -349, 63, 288, 161, -46, 111, 2, -369, 40, 377, 215, -244, -21, 226, 294, -305, -309, 243, -111, 44, -34, 224, 262, -87, -348, 83, 161, -228, 321, -80, -54, 24, 395, 263, -211, -51, -28, 217, -377, -373, -186, -99, 217, -151, -282, 114, 401, 268, -371, -121, -123, 8, 166, 198, -58, -147, 298, -284, 31, -145, 50, 25, 279, -333, -126, 119, -334, -105, 357, 135, 355, -229, 67, 171, -340, 177, 328, -357, 26, -6, -79, -55, 37, 121, 200, 386, 379, 98, 152, -332, 358, 236, 75, -100, 307, 6, 59, 21, 308, 22, 198, 247, 200, -135, -320, -85, 113, 49, -77, 199, -370, -84, -237, 88, 78, 335, -279, 61, -304, 255, 145, 86, 82, 237, 394, -345, -140, 59, -291, 188, 121, 332, 38, -91, -195, -245, -148, -50, -153, -162, -278, 334, -207, -146, 10, 295, 242, -254, 369, 341, -331, 96, 23, -243, 414, -313, 285, 291, -240, -383, 77, 301, -15, 155, 254, -180, 307, -291, 193, 209, 400, 320, 123, -203, -233, 222, -346, 64, 372, -344, -13, 56, -212, 79, 256, -217, -183, -209, -339, -24, -207, -225, -129, -167, 338, 181, 80, -102, 290, -123, -294, 285, -204, 247, 120, -384, 45, 180, -276, 28, -126, -241, 115, 52, 239, -44, -121, -394, -219, 377, -341, -359, -247, -73, -161, 153, -315, 359, -354, 47, 258, -267, 361, 76, 382, 89, -227, -321, 309, -95, -261, -226, 56, 276, -132, 335, 303, -187, 346, -313, 253, -400, -286, 60, 363, -59, -191, 135, 328, -157, -222, 188, -358, 202, 340, };
int sigmoid(int x){
    return round(1 / (1 + exp(-1 * x)));
}

#endif