#ifndef KPNN_H
#define KPNN_H

#include <math.h>


// use net Pnet => 128x16x2 => opS /egS outputs
#define N_INPUTS   (64 * 2)
#define N_HIDDEN   (8)


double OUTPUT_BIAS = -4.484058443336163;
double HIDDEN_BIAS[N_HIDDEN] = {2.983428806499532, -83.43238181116449, -92.59664654210685, -104.2787386892235, -125.4517267102143, -36.85321073094417, 5.555047097250836, -93.14626117406675, };
double OUTPUT_WEIGHTS[N_HIDDEN] = {11.54714867532681, 62.74472580118922, 124.9226700365418, 88.74937122274272, 120.6001327154586, 11.64390095623892, 25.49413435197604, 96.06942284277268, };


double HIDDEN_WEIGHTS[N_INPUTS * N_HIDDEN] = {0.2281528887004372, 0.08403323385120987, 0.2437570773734511, 0.1971495382940162, 0.03873036174975819, 0.04883303518818366, 0.2146090617005755, 0.423646761534571, 11.02773153711288, 24.82552731467568, -10.6692511262952, -1.664622507958227, 31.71331481907906, 87.12615994061761, -21.94630428220341, -10.8596312378978, -6.695743013050519, 35.50374901041063, -26.896759153049, -37.09857234585117, -10.89443228455853, 46.82721115842124, 20.93917824136019, -29.23538561074845, -11.58296847519363, 39.88004597196409, 0.4962529260094317, -65.91292612914656, -7.903981509562136, -14.6148658502694, -20.01187373501351, -51.62896306965013, -35.7084314703492, 57.35269715884049, -2.679528517729535, -33.54589710464003, -64.9961291702929, -24.57702262885855, -34.88696406367561, -35.96900875343644, -45.84128515768482, -23.10703457010187, 57.02968995426689, 20.55495074319165, -20.1105474270443, 6.072495072426942, -47.26117589641142, -50.03178659621614, -21.81909527931301, -56.52074828479468, 8.99053533879264, 10.56703684474944, -16.29132958294064, 11.33787993755914, -46.21458387287095, 25.54066324392616, 0.1562021303252327, 0.2214568959183325, -0.3037851540389401, 0.4170404495285081, 0.09093434810216278, 0.4835293586289181, 0.4060316574322207, -0.4555549658627971, 0.01460094773890497, 0.0921724036299495, -0.4633139180779987, 0.09450557250273672, 0.4929222119939151, 0.4525738921726932, 0.3526686853043124, -0.07156670772077833, 6.629561686748499, -18.32890517210444, -21.89676373427994, 1.135327216625037, 3.565786829913151, -32.34934219398283, -5.241938105206041, -8.328591079403614, 3.008699526536572, -2.048397711458709, 81.57962838376963, -13.76015735791971, -11.96059574830626, -4.3252509617902, -3.931415154887493, -29.56832022774933, 28.26157063119574, 53.19986849579336, 12.35099161600349, -30.59827746355159, 23.5333907566223, 11.85753476650068, -32.48383710804298, -50.02402096866968, -77.08698445791796, -25.38880793681354, -42.17296160961824, 60.64481577803718, 4.738730192107457, 18.3363810842539, -34.49304145107602, 14.69285969163278, -39.17616630919094, -86.65950360977736, 21.82349114731027, 17.19439413716354, -0.9984049356896302, 9.976864751358358, -44.05068145444115, 12.69023270158909, -19.96462455027159, -159.0209236401834, -21.84924282031516, 4.133228956732692, 23.6238899379789, -3.105179410328748, -25.65702360827478, 63.28431405854491, 0.1630808965596747, 0.1964684136661088, -0.07687962594296771, -0.3085589552338044, -0.2183524415448087, -0.1442354254630559, -0.2655978592883785, -0.04100089312577659, -0.1749051425954816, 0.3718688100911066, 0.1292728672871705, -0.2530009680208755, -0.1379958361564184, -0.2720200800206606, 0.1456232185687978, 0.0893488896961086, -24.635244781702, -17.1497739164957, -10.11579181588499, -0.531642003901365, 0.2050352756178446, -20.16193242966395, -29.00594209347321, -25.20497708654992, -12.04367493168407, -14.52078514964279, -12.94551560988485, -6.739746145691803, -1.549564603631207, -9.349959815864541, -16.7495603927132, -21.61469889457701, -13.03196591627068, -6.950011949041214, -13.03172890515859, -5.981295740164689, -12.08501598014179, -11.13333981388516, -11.13258715023873, -16.11669957356771, -4.915432455349536, -4.090790641993332, -2.375695328052739, -6.975438495973741, -9.11051547239204, -6.926240864430246, -2.883360274963049, -4.302769433465562, -3.747736565585018, -0.6505557010809782, 1.077755205093063, -0.9827508823053398, -1.18457112353719, -1.418482201632003, -1.119164980480986, -0.9266138210538835, -0.9438901135006039, -6.88782036311533, 0.3680482433179584, -0.3241143102281356, 0.06711077225827332, -0.3982495262730558, -0.0539536770951707, 0.520901592823436, 0.3274874355771986, 0.1571251422432834, 0.00478540477565742, 0.01275708736514536, 0.1581960467892681, 0.4537619678088287, 0.02312159655761048, 0.03113576096069803, -0.4679886023364908, 0.2804851381948614, 0.2660796399070321, -0.1617592515711482, 0.1834718984009102, 0.09037240808381347, -0.1345999853846617, -0.3457964443814924, -0.2314691606958112, -0.1405937892508756, -1.035300679268234, -0.06007370326125222, -0.03813640981552777, -1.64206103994992, -0.5142690132133068, 0.3881893087285809, -0.01445384408963089, -0.1801203261696965, 0.9472938389758454, -1.242835303357225, -0.5285637883481576, -1.601447839172826, -0.1230025293999183, -0.8995685213672067, 2.252238758310272, -0.0567017352401753, -2.721436452816987, -5.275757614260614, 0.1262893099035425, -3.125445348786762, -3.782168120590902, -2.791968506507063, -12.98171820716534, -5.783224301302147, -13.30054496248614, -2.074944575202126, -8.464635654229337, -8.456966412766747, -10.34266931537348, -11.21663006054534, -14.12714290814788, -15.53026428363916, -8.935605194077006, -8.362843089551646, -16.36087368937543, -10.79066224874991, -25.19471082227202, -22.87898023295249, -20.28480446017928, -16.97326152962235, -10.82277360995262, -0.9576854601018454, 0.3561027270039717, -31.03716033787693, -27.11283703647574, -22.10493707242835, 0.004707963440896912, -0.04892784615463008, 0.05263916009694297, -0.405813181728969, 0.4152203290328478, 0.06737069718882938, 0.2156770721616582, -0.3401463580504741, -0.1518181262779134, 0.1754080740154759, -0.4120411467328859, 0.2193654583391573, -0.4994609095153683, -0.3297323793311289, -0.2047101313735872, -0.2240073060262983, -27.77545812426478, -22.48363199083644, -14.20838292043613, -1.809120090156804, 32.46869068082628, -34.39207074408436, -38.85205813972371, -7.03832913046862, -51.01572669653346, 2.366401251119174, -35.3885788760309, -13.45255276200819, 17.97358017183779, -9.916149404323503, -29.36305246900187, -40.40478516132362, -18.40911983748609, -3.943711411181724, -26.12261105870351, 9.394841779531648, -21.95555635585264, -27.79311562136204, 20.00535582919992, -7.505812681609078, -7.960431090646846, 15.98468825659039, 13.48997315164626, -15.23940734076742, 13.7895220226398, -10.89393875460955, 18.71045296426844, 9.694591443392721, -8.667676399903556, -7.584348548536496, 11.21137236857324, 34.04998623470511, 1.769848241556307, -7.563864428660245, -16.55819913428623, 42.35186962797032, -11.85701301036795, -28.11530288111086, 8.587140100609439, -0.1421937929008409, 6.332651654447542, 0.2360185787649064, -3.781330059761926, -3.535542393150913, -0.3480701715909271, 0.3166079268868118, -0.2358750033825053, 0.06850066295289464, 0.1399863789044257, -0.09643669640479458, -0.1667466287811969, -0.3612270950624845, 0.1309604638400304, 0.3173715378238687, 0.1380985223865595, -0.4713747552462736, 0.09677957305534723, -0.0865831666563559, 0.3938193148438909, 0.03846976838003369, 29.78397191230169, -0.6860405978854283, -22.3848424808761, 0.1323809693963669, 0.6149136111559139, -5.687325905079126, -17.21932836702761, 21.3360966435688, -11.45998053429234, 43.94533289484576, 18.71486439141458, -7.690325404299451, -11.50095549993716, -26.2723885269932, 11.923081936198, 8.039106690788007, 23.15568574058496, 29.81860515563819, -5.628156033661351, 0.4675158511844715, 13.24955151325179, -17.80312062528742, -3.661169309994221, 6.331815924030961, 4.720822188419559, 32.98451733604465, -31.01193038203322, 29.66201691382292, 0.1192770474073062, 31.50854305298426, -30.08332720892323, -29.95197847424237, 0.5556858260818219, 3.977025209119337, 16.42047044619738, 7.817693544095717, 5.806912081698189, 13.61218293071563, -46.25334255148022, -58.47879431992022, -9.715478529358135, -64.95079635652984, 0.4844078006497369, -3.694722272858715, 40.7450067534726, -8.349833245672247, -17.40125569650315, -24.42823708671899, 0.2515942932812471, 0.3883366486468989, -0.476164161216544, -0.4448435995470935, -0.3759636221807281, -0.20430991365775, 0.4896789719302575, -0.3228923542531638, -0.2943571437123963, 0.4528267886269962, 0.3269584867297478, 0.02901246004226266, 0.3097939197019646, -0.4847209043729682, -0.3479287847168412, -0.2944056977491852, -28.89209425532547, -23.85126531699632, -11.3706235480173, -0.2064787172600227, -2.282199875186829, -31.0165491811558, -27.81672364979956, -31.24436714533041, -17.64212354124064, -16.076767765937, -11.59562238116409, -4.728607486890779, -9.858076249250754, -13.96556464481977, -24.19362017103386, -20.1029176461405, -10.19090950086777, -12.71587452895111, -9.017345684109033, -13.14753592300431, -13.68486980367075, -14.26136814981181, -13.04590595822618, -15.24712233433431, -4.366639136995117, -4.595909540334867, -5.272835348958244, -4.209766657443001, -7.696085023450007, -4.645657449038302, -4.658232634904016, -6.734533676978698, -2.400444079478764, -1.599541886777953, -0.5457563819781264, 0.637470758573262, -0.1363355609246937, -1.337854961171791, -1.230555487379871, -1.774216802111013, -0.6622630213357554, -2.37903597270773, -0.2498222618193678, -0.1477383319493987, -0.4065353615828478, 0.5628032742186081, -0.1952166159978959, -0.3278883599411612, -0.07322279343997262, 0.3667174600375432, -0.3967391624565885, -0.3035205345617237, 0.0523193965443966, 0.3607439854465164, -0.3281754184645486, -0.309251878787415, -0.05481438038629216, 0.1761821576748892, 0.1389707660483991, -0.4550936501264077, -0.167389050436853, -0.2072122868649718, 0.3688632416859564, 0.3586360504192468, 0.1372926253143425, -0.1801880291568597, -0.4628618930106554, -0.6144280078957309, -0.7063414419943447, -0.4354520833805964, -0.5605933478186591, 0.06387965893753833, -0.9547649358267813, -0.2134672928642345, -1.951213293735935, -2.001055809275454, -1.026909278300683, -1.171094880420006, 0.3839512635175282, -1.101554857683858, -3.749643453583766, -4.445342196023609, -6.49933261120152, -4.890531431400438, -4.877575410488931, -3.051247132730766, -3.23501158378978, -2.845447062126788, -9.137687411944517, -9.948664974872868, -9.973418490804853, -14.99847972654763, -14.04124210607475, -12.21825470572874, -10.92736971881152, -11.96881578844473, -15.18805121057783, -11.82140258510945, -15.02172892881186, -9.78965325416703, -17.92942607663967, -15.67618717249229, -22.65503194708816, -22.23537676288309, -24.5611089340109, -18.01519182212285, -9.991007654253329, -1.494573457960258, -2.179893994294249, -32.61778897362932, -28.59078618068415, -31.64945878855388, -0.02955902392489795, 0.3949501486005961, -0.03352284316603227, -0.2162473475170542, 0.003559023376348891, 0.1715061243956472, 0.04224994897015855, 0.2883500562926522, 0.01550585800572574, 0.3456535957966249, -0.09424796122789758, 0.1522933052164937, -0.4820795161566136, 0.3817900716707995, -0.07731678410308285, 0.3404743959384385, -22.34298653908021, -24.93744511728281, -5.357050646026012, -0.2445827353688635, -5.4119931929024, -34.9258612606611, -30.07757853418704, -41.03811511481737, -22.73049330694752, -11.29138381373345, -5.24112350368052, -1.819464297731948, -18.65147967703781, -23.16782239914062, -28.18964526164831, -19.36693617545544, -7.706264986158293, -21.05933881120515, -6.824094776870383, -17.74655868585489, -11.43160775370187, -18.33521125283657, -12.76615449348937, -14.52952153683317, -5.216952231140422, -5.273420686649426, -11.21236712310848, 0.6972254995778668, -6.346353818937862, -3.78889638628359, -6.507700336396587, -9.973396194634793, -0.8222488306806299, -2.036871923296853, -3.847509210502335, -3.526799768357127, -0.3620323217552552, 0.3036416345634493, -1.379420359597395, -3.527165001083552, -0.05231718875503934, 0.3704274473418938, -1.408687084530622, 0.2077947453403685, 0.3675936815744684, 1.700295221697174, 1.118713202402655, -0.4176672460475395, -0.412115583155358, 0.2823718538425732, 0.0320772992130729, 0.4504253314577161, 0.392397792959771, 0.4509477889868188, -0.1715278968548066, 0.3480773274079325, 0.2755703170670059, -0.1411878199508357, 0.3216773456994804, -0.01801708364766885, 0.311835473781375, 0.1357517599294669, -0.1088763669174521, 0.3729389169593057, -1.064142193059776, 0.2363799265209186, -0.1055537113591389, -0.06963235700084994, -0.6597292335276521, 0.4380744437476669, -0.3878696609872672, -0.4929688922156165, -1.346533505851204, -2.236010080915511, -4.22808616881626, -1.748564143471842, -2.147237428422197, -1.520660899280576, -1.994677523868461, -2.014275612461913, -6.632853233810666, -8.855876620852763, -5.432105852847561, -3.032849029437948, -7.727794031320481, -6.550189355058533, -3.44375725378642, -2.670048009979813, -2.541662956257634, -21.48473621806669, -2.016765349305238, -30.14060765642619, -12.85410591387578, -23.05995461682846, -13.38978804217033, -14.77341816604341, -18.56723475627095, -10.67552431217635, -12.38894356660967, -13.94941219371601, -24.97504720281747, -15.20642526708477, -23.2954731188799, -18.90372462792766, -22.12165256129254, -21.34462161921602, -5.731061402312831, -0.2124453475876188, -4.816383600059233, -32.49359447558976, -24.48643259823159, -40.63973801048555, 0.05083344483321228, 0.4263101666822611, 0.1375617127109141, -0.392972825045219, -0.2536110890813223, 0.329110411381866, -0.06120877785664458, 0.4252798361355811, 0.3423364557522984, -0.247461814315739, -0.08399376579746309, -0.008685739947802307, -0.04259121722662418, 0.279671550160121, 0.006712449484836513, -0.2524585415387799, -9.34242955925367, -8.171105273670342, -4.093825613889996, -0.1128018492385861, -0.4259472240409042, -8.605610275036906, -9.607810054884013, -9.83506667654876, -5.811740409948051, -5.225526147822949, -4.556016825559724, -2.217788803657844, -2.860877894946452, -4.676447413846804, -7.704862237154628, -7.7692153616028, -4.31607732443206, -3.9403302434839, -4.653363055714974, -3.901650681632592, -5.360535447010791, -4.440973741912235, -4.882774183979946, -6.07005798828104, -2.104170211631263, -1.616989902557293, -1.591680937561037, -2.854184655004301, -2.566355436273335, -2.466923144704284, -1.879145931776204, -2.283034929618437, -1.22161270880458, -0.483730994122935, -0.3539684675870285, -0.06528954691701208, -0.0454366362922091, -0.5562319920918722, -1.047079154306368, -1.046809871769596, -0.2258376006624909, -1.688574997796453, -0.2727553170662462, 0.01912692554571211, -0.1774068497701937, 0.1686391817559664, -0.3766828327949553, -0.07992053011928707, 0.3241772292294434, 0.4173444928216489, 0.3082341997922557, 0.2666979766295748, -0.4343692487731433, -0.4352225316386775, 0.05155518024766592, -0.0335448042180132, 0.23732697252991, 0.3277266439179548, -0.1753115768895073, -0.3104519740727041, 0.1106105570730803, -0.06953689063411994, 0.3707992759862911, 0.3998297065961313, 0.618099420280982, -0.5338596939339333, -0.1717546141328051, 0.1194858201648145, -0.071558568786218, -0.2620936909388029, 0.003498927535577667, -0.5148584734719132, 0.1395420129409368, 0.3484082197405056, 0.03638809473757881, -0.7502570152626032, -0.201528415495696, -0.08185752672776937, 0.2287322835099208, -0.3971284772573402, -0.6484175627343097, -1.080308690983125, -1.911286738476323, -1.578869559168815, -1.833291349647668, -1.209335672853176, -1.303960968740649, -1.310010485507943, -3.87288411130428, -4.000504508355061, -4.673686520756692, -3.779166051093696, -4.923595754952119, -4.139258480080136, -4.095284068913851, -4.528149067683608, -5.959561766850196, -4.929685691973558, -4.479185699598087, -4.345503125868024, -4.972935860168653, -5.524365092328456, -7.965544227338816, -7.95848257032164, -8.131776213250397, -6.855874461461845, -3.899409962562096, -0.5625982955302496, -0.397340775234157, -9.724598117604197, -10.28355196515236, -10.15869557093451, 0.07023621609911146, -0.4933454124225981, -0.1434495521911651, -0.365320009116698, 0.3428036909749749, 0.2055308724313653, -0.06354926133693628, 0.006679438290502604, -0.1208002798356117, 0.4277695123701215, 0.2811657426791106, -0.0166683227367086, -0.210112438402191, 0.4554817541295112, 0.06791873256113323, 0.2368771018166454, -52.56059375447319, -28.46707799525536, 21.98946004905343, -11.84393001536626, 23.04388566085044, -23.13701574136066, -86.19122700275, -24.43454515370852, -32.71596269870507, -96.68167224627216, -15.05812839435537, -31.45454482318942, 46.94711634729154, -18.46846166467159, -88.78873437332062, -81.26400384159336, -85.51398067075722, -100.5345484491428, -41.24797383909553, -22.63121613934818, -13.82816278521357, -15.22160238597584, -24.28834739645923, -23.55824250861069, -89.49409993507939, -53.12747292781638, -62.74330406764273, 7.139920176720405, 44.37600555672984, -23.71650701925305, -13.88161497398904, -23.47847115188848, -44.84497931685184, -36.15194013333459, 48.75977910394158, 77.42765068471822, 47.995158412211, -2.86910814646603, -39.67783224230661, -28.93647190371038, -50.73443687423106, -42.79082781516959, 53.96662641531857, 50.24619020144721, 23.52235343489849, 15.70096487973944, -18.355988412605, 30.62537983670179, 0.1959042608253212, -0.2522865784132325, -0.3486089137609159, -0.07095907189462292, -0.4452641731804535, 0.3190737202852376, 0.04137731601548256, 0.2895277448881081, -0.2320779034551596, -0.3629546192767819, 0.3142072240888175, 0.1722522269339544, -0.1993678210765905, 0.07576380464051097, 0.2855422719314425, 0.3115983320454128, 34.11951338404337, -13.15533447685425, -45.96876649984433, 2.570902588850862, -2.993018078492377, -58.88158876503687, -58.30105075446917, -36.67659270552794, 24.34971323655898, 30.58902813578115, 21.82020145097128, -28.39137122363762, 26.54746772132735, 6.054352005217515, 71.09960429341221, -6.065095312930546, 16.88348364858668, 16.42798405042333, 0.08783845753401784, -23.38847520007717, -5.314016887827359, -38.6188520195364, 15.43186697351193, 19.60974168387422, 29.39148874110448, 46.09883556741258, -56.76342497652573, 11.53018893814281, 6.492520808786865, -51.63858020058377, -59.59963389740166, 8.460994585004125, 40.26398649135452, 46.97463682612385, 13.82761269673022, 0.404863767937004, 18.62511190764487, 0.4414928080816692, -60.45098483524914, -41.49915682093204, 80.96573147642809, 17.87772454686726, -89.71365327732909, 1.793156249383392, 5.240251389486034, -33.25098667375885, -49.65178355446858, -83.74778038673023, -0.1728445392441212, -0.4394774567054014, -0.2536606335796698, -0.2105627500966949, 0.00667201332127304, -0.3370845130817427, 0.01964113559557179, -0.4101331359288344, 0.3936988319706632, -0.07790275177820716, 0.4736938946757903, -0.2997540192677425, -0.3899043676862047, 0.1691192563945051, 0.06055191371615598, 0.2481976154950437, -25.27794312645704, -21.22318054762358, -9.239035967146462, -0.7633792921596622, -0.8856652554325847, -20.56387727965422, -26.62460468769358, -24.3540181915344, -14.68429966830996, -15.604066611759, -12.17362540528469, -5.671489316261417, -6.090539232452257, -10.32717275558494, -19.67750599185115, -21.21181535435368, -12.67657371229783, -9.905226288337758, -12.85861191423056, -9.325369050727231, -13.26276802258738, -12.45017039244644, -13.03822348745027, -17.44514194595023, -5.491663938692885, -3.937492319940054, -3.157686592261553, -6.418294423293735, -7.712200288055321, -6.546644321307513, -4.290117719260174, -5.987514054075428, -3.685921201596133, -1.348498657954583, -0.2334162265220561, 0.297393597882967, -0.8191915401923883, -1.647288294282355, -1.631693650653574, -1.550075581123384, -1.009603464038436, -5.297777110758472, 0.4188974340539768, -0.04256609952366926, 0.4411063369333367, 0.463197284557514, -0.0627495977554528, 0.7091231674600732, 0.0983039883888811, -0.1203090299946764, -0.3632656735662677, -0.111958194809015, 0.006147185576216851, 0.05335143932763087, -0.4285215465019092, -0.445299350631097, 0.4436624464316584, 0.455161083934438, 0.2133497464067068, -0.4969072905354701, -0.1006043728443814, -0.379803541526107, 0.1245056081677348, -0.4214395945525913, -0.09430554532184003, -0.4263708213184783, -0.8647880690157019, -0.3039187918270208, -0.3645147751148347, -1.120486187051562, -0.461706175158711, 0.2507861255616181, -0.3828472786043181, -0.5907791488393589, -0.09038678465414679, -1.917455269078786, -1.096002904368499, -1.733386247730923, 0.1672126910314605, -1.010066049530007, -1.375301108033708, -1.985712272119162, -4.685310286444904, -4.824506405953619, -4.094068757282212, -4.003219555910585, -2.889534447367395, -3.832878247918443, -11.51147919346852, -8.736150447456685, -12.89674358845726, -7.740921408684514, -9.309113053161852, -10.67231988541557, -10.9339818720971, -14.18730271668615, -15.40600268896815, -11.84656712031734, -11.00465657173496, -9.716905596460048, -12.59698796063699, -14.12762013558241, -26.054093817247, -20.81211160494684, -19.14705032869304, -14.43967473654047, -10.30077386626738, -0.6220877224522323, -0.6411614713923579, -27.40843388424737, -25.28256885323065, -25.57869552792001, -0.2887633106618949, 0.2094675319779047, -0.4284853641542072, -0.1605734967908699, -0.4808725071981886, -0.4659344488596239, -0.08872123648818642, -0.2160514619741829, };




double sigmoid(double x){
    return 1 / (1 + exp(-1 * x));
}

#endif