#ifndef KPNN_H
#define KPNN_H

#include <math.h>


// use net Pnet => 128x16x2 => opS /egS outputs
#define N_INPUTS   (64 * 2)
#define N_HIDDEN   (8)


double OUTPUT_BIAS = 0.09985062342460653;
double HIDDEN_BIAS[N_HIDDEN] = {-0.5113608288511768, 0.3342071977610079, 0.1899537545042468, 0.001324113110105833, 0.4919784661039499, -0.4810587674192924, 0.06390488995582545, 0.1290611696499788, };
double OUTPUT_WEIGHTS[N_HIDDEN] = {0.4717018407816194, 0.3453005836582368, 0.4715125156407097, -0.006492876800157775, -0.5063547747394039, 0.1356364000171265, 0.3271900074462581, 0.181455349556447, };


double HIDDEN_WEIGHTS[N_INPUTS * N_HIDDEN] = {0.2281528887004372, 0.08403323385120987, 0.2437570773734511, 0.1971495382940162, 0.03873036174975819, 0.04883303518818366, 0.2146090617005755, 0.423646761534571, -0.3228574634269751, -0.4559030892793698, 0.109128508433773, 0.1265911785864394, -0.4611106917795121, 0.04782051146766452, -0.1641377294352475, 0.4939542583833697, 0.03855565408985413, -0.2274652008380107, 0.3134640816563162, -0.0581383118418294, 0.5120778337619022, -0.1073610370285416, 0.4599709454103242, -0.4284381090350487, -0.1514305088656767, 0.1908412891368601, -0.4076298489170896, -0.3300269653954258, -0.2420816968092306, 0.3711836422307542, 0.2831428123215612, 0.4703912776093311, -0.05531647978566471, 0.03390329215130465, 0.1920267511614725, 0.466227830143477, -0.4182114619550426, -0.1117361828905961, 0.4163793858700384, -0.2391157417574772, -0.06978766466721502, 0.02573098057782902, 0.390899982373126, -0.03454066394212982, -0.4532731649991991, -0.265527835005745, -0.04866348984809517, 0.07953065984690963, 0.006628136116469258, -0.230582786831895, -0.471562056012432, -0.0007033212562759314, 0.1719290537101364, 0.4757996930131542, 0.09296922184681884, -0.4519332355181807, 0.1562021303252327, 0.2214568959183325, -0.3037851540389401, 0.4170404495285081, 0.09093434810216278, 0.4835293586289181, 0.4060316574322207, -0.4555549658627971, 0.01460094773890497, 0.0921724036299495, -0.4633139180779987, 0.09450557250273672, 0.4929222119939151, 0.4525738921726932, 0.3526686853043124, -0.07156670772077833, -0.0232760552620505, 0.235671522924088, 0.3927303302193837, 0.02494891398066433, 0.4743065884263802, -0.1587991152811131, -0.4002784441925721, -0.01843020177162989, 0.1289389216972116, -0.3712779352767511, 0.4899931765596182, -0.1963665122369842, -0.3929759405039905, 0.07551363879201298, -0.1495449137904669, 0.260731177287471, -0.1919778270410031, 0.05869104318215855, 0.1875523598539658, 0.382891517664307, 0.0376359034537594, 0.08197368362597093, 0.4289968496692111, -0.4611720133860233, -0.3432882413261131, 0.4796811917403683, 0.1149723653221723, -0.2930149622987466, 0.4291335802349034, -0.006654852875574707, 0.0931674353872765, -0.1167295052623944, -0.2784168958735446, -0.02401298497878855, 0.4401317565619002, -0.3134030567534968, 0.3408742895825975, -0.4720224029417701, 0.145788251138237, -0.05272762406945693, -0.3474725509067835, 0.1532288409600457, 0.2662197462693555, -0.2427727054731325, -0.2549430693587098, -0.3914231201160466, -0.4912258562384109, 0.05212432396744776, 0.1630808965596747, 0.1964684136661088, -0.07687962594296771, -0.3085589552338044, -0.2183524415448087, -0.1442354254630559, -0.2655978592883785, -0.04100089312577659, -0.1749051425954816, 0.3718688100911066, 0.1292728672871705, -0.2530009680208755, -0.1379958361564184, -0.2720200800206606, 0.1456232185687978, 0.0893488896961086, 0.2128557331306083, 0.07196195162848894, 0.2850247319758294, 0.0573923982118914, 0.09511088668779709, -0.01809566778204785, -0.494856919614622, 0.2379437224855452, -0.3629189443715304, 0.2908727734211568, 0.4789975141527898, -0.1367553985688044, 0.4204052756144577, -0.4837204460153304, 0.4127204623149177, 0.05654459336000683, 0.1962614946666905, -0.1594345739608157, 0.2509362128838876, 0.4904494452534046, 0.182277720850149, -0.4976088554503821, -0.053561115271076, -0.5046138843047647, 0.3716419245778937, -0.4212434251444316, -0.2384277430755737, -0.2736161667627429, -0.2044680503411147, 0.3932948801148771, 0.3252344888506588, -0.4709719646410416, -0.03284194737222516, 0.1162794646288161, 0.08887620964502103, -0.4394755166850923, -0.4145694160783011, 0.1067056646351263, 0.3019033695935309, -0.2771731271944812, -0.09775363451666086, 0.2847872503467016, 0.09277077623776755, -0.1846983977198453, 0.3059102952135491, -0.004437104642712704, 0.3887823298774854, 0.01686478053663252, 0.3274874355771986, 0.1571251422432834, 0.00478540477565742, 0.01275708736514536, 0.1581960467892681, 0.4537619678088287, 0.02312159655761048, 0.03113576096069803, -0.4679886023364908, 0.2804851381948614, 0.2660796399070321, -0.1617592515711482, 0.1834718984009102, 0.09037240808381347, -0.1345999853846617, -0.3457964443814924, -0.2951206062509898, 0.4492475916568082, -0.2863150495608071, -0.2075459478456947, 0.06018886192505447, -0.4869264465623316, 0.01118918114127863, 0.4630303848563816, 0.3094437987562149, -0.3955254854292575, -0.2148917256266843, 0.1174738326195302, 0.1033484615342094, -0.3316159811351396, -0.3672378777774231, -0.07078692076006179, 0.3303660474695934, 0.1458135489116414, 0.4450978718037213, -0.02044557867778225, 0.09593935315243594, -0.03642109775227513, -0.4878835773241251, 0.1193350769416321, -0.2725173580663983, 0.2852105322834859, 0.4449957463587969, 0.4442735847925445, -0.1242591160236017, -0.1699510056227018, -0.4216816688954334, 0.07191661467367225, -0.2254602362950714, -0.2233880898259689, 0.3733279317069569, 0.3335888153928308, -0.1977576118043771, -0.1157359644350192, 0.2773880623882124, -0.3963438859606716, -0.02665170422988545, -0.4331465947484946, 0.2302107359226091, -0.4172622641711818, -0.2485794847103002, 0.348467973372942, -0.006799676996708137, -0.4219285793937517, 0.004707963440896912, -0.04892784615463008, 0.05263916009694297, -0.405813181728969, 0.4152203290328478, 0.06737069718882938, 0.2156770721616582, -0.3401463580504741, -0.1518181262779134, 0.1754080740154759, -0.4120411467328859, 0.2193654583391573, -0.4994609095153683, -0.3297323793311289, -0.2047101313735872, -0.2240073060262983, -0.03429892583440416, -0.3317088752771911, -0.386413346488909, 0.2789024115841052, 0.04831771242712899, 0.4176995045945305, 0.3899158800916209, -0.4667465471528616, 0.4870920511285838, 0.1266936966686019, -0.4124993857239163, -0.2772153409006602, 0.01803515421912771, 0.1169113446797829, -0.1993931715104511, -0.5082545695618974, -0.4651751823694838, 0.3529851432099268, -0.429660823116961, 0.4938304928933626, -0.08807694939414107, 0.327933050401833, -0.3685002020221138, 0.2540164259033036, -0.008874259670995702, -0.2716803706288741, -0.01798956605067073, -0.02209395123812749, -0.1067366338537846, 0.2751038330416324, 0.2744178197331066, 0.3655238442009483, 0.4375989590573867, 0.3868916001687696, 0.1494486264160801, -0.01947388167486848, 0.2949651278782145, 0.04370878815478604, 0.003672719220912344, 0.2771166597519368, -0.3148602808310056, 0.09580113304864711, -0.4917651588242468, 0.1952120618628392, -0.2812653088170324, -0.1994747589595294, 0.2074300102896012, -0.2138283877161493, -0.3480701715909271, 0.3166079268868118, -0.2358750033825053, 0.06850066295289464, 0.1399863789044257, -0.09643669640479458, -0.1667466287811969, -0.3612270950624845, 0.1309604638400304, 0.3173715378238687, 0.1380985223865595, -0.4713747552462736, 0.09677957305534723, -0.0865831666563559, 0.3938193148438909, 0.03846976838003369, -0.2012586591545135, 0.03779445868362302, -0.4815346001838825, -0.4042733081490716, -0.4140322481736955, 0.02254755612697035, 0.3727199744949872, -0.2275341470309203, -0.370647213160663, 0.3784555828174468, 0.4702649008489326, -0.1502404391863025, -0.3164776322594347, 0.1752895463150661, 0.1368676718034277, -0.1681424678029111, -0.003972056870476941, 0.4054454573392136, 0.4051853501145356, -0.3746586146611562, -0.1924825962522418, -0.2698228735524496, -0.2328103098185896, 0.4284705112325959, -0.4729379585690266, 0.4163812043797668, 0.4391303057341013, 0.1653429528010114, -0.173648669964382, 0.3496133100404948, -0.32176609570132, 0.1081992622032082, -0.1058175645069628, -0.3033734309636518, 0.2299491717262295, -0.02983364465836171, 0.2343016299553245, 0.08900963904667233, 0.2156124845888885, 0.3553906534347981, -0.01876303496864956, 0.2301831846174921, -0.2934327594935152, 0.1535343125793569, -0.09411266661187918, 0.351649987955558, 0.479701999117384, 0.4022770663048565, 0.2515942932812471, 0.3883366486468989, -0.476164161216544, -0.4448435995470935, -0.3759636221807281, -0.20430991365775, 0.4896789719302575, -0.3228923542531638, -0.2943571437123963, 0.4528267886269962, 0.3269584867297478, 0.02901246004226266, 0.3097939197019646, -0.4847209043729682, -0.3479287847168412, -0.2944056977491852, -0.2758316750749681, 0.3695887606033668, 0.186983846801912, 0.457475513118538, -0.03956941054995473, -0.05897036205281957, 0.3214313494225492, 0.4304021324010152, -0.3382209629196319, -0.4626055009453313, 0.08168385485869209, 0.05927951611213958, 0.3893967068236461, 0.06807420579952413, -0.04956820340862687, 0.1402482980398307, -0.04407627675847237, -0.02585545923251156, 0.1952421588815062, 0.08033286894278772, 0.2696693714367823, 0.1856918098447096, 0.2573781284979362, 0.4751213379898198, 0.1383421489367604, 0.08447552265566839, 0.004474379317671882, -0.05225802011626386, 0.09955065260848296, 0.1562238055843606, 0.1538442103196015, 0.3240124511392757, 0.02594242261043262, -0.159133176781373, 0.2815441098551704, 0.4862411782926172, 0.2814063749690629, 0.1032429175654208, 0.4164379864728575, 0.443192469243592, 0.140844645325488, -0.00173381635490797, 0.002628063720744318, 0.03004029686500155, -0.4334825170569667, 0.4527274651512206, -0.329268714752304, 0.02293550707535857, -0.07322279343997262, 0.3667174600375432, -0.3967391624565885, -0.3035205345617237, 0.0523193965443966, 0.3607439854465164, -0.3281754184645486, -0.309251878787415, -0.05481438038629216, 0.1761821576748892, 0.1389707660483991, -0.4550936501264077, -0.167389050436853, -0.2072122868649718, 0.3688632416859564, 0.3586360504192468, 0.133606777252035, 0.1502719166458336, 0.3448861432009262, -0.08495106634381031, -0.2464213131726089, 0.2612931973835322, -0.1418323793686527, 0.3944299682178876, -0.2401313763350431, 0.3607944179912769, -0.07535649759773487, -0.1735448308822264, 0.3135464647105901, 0.09523295168516221, 0.3493258990189113, -0.2597237713396856, -0.03783043760926627, 0.4528006914335461, -0.06304894218965959, -0.4858125687823294, 0.3133054324318565, 0.1085047831433467, -0.2950764487447035, -0.2416119970522412, -0.2156317887670408, 0.3440644701562016, -0.1970978836549546, 0.1178438240112284, -0.3631071331921146, -0.3278635724334925, -0.02422204779421713, 0.2701847087649549, 0.322393769493409, -0.1795190564401115, -0.3143220683547952, -0.4241241392190286, -0.4177483578654564, 0.04367900403050591, 0.4700381614810396, -0.158206354269391, -0.09562712288101929, -0.1052403710482342, 0.1683462457422938, -0.2821353453418454, 0.4903919711137877, 0.01789150170779219, -0.0420140610015869, -0.04743390242170722, -0.02955902392489795, 0.3949501486005961, -0.03352284316603227, -0.2162473475170542, 0.003559023376348891, 0.1715061243956472, 0.04224994897015855, 0.2883500562926522, 0.01550585800572574, 0.3456535957966249, -0.09424796122789758, 0.1522933052164937, -0.4820795161566136, 0.3817900716707995, -0.07731678410308285, 0.3404743959384385, -0.2868047638932518, 0.105585881658435, 0.4212796237607161, -0.2140050818121236, -0.353341316637224, 0.3695096817501944, 0.1292792361757877, 0.04227484830738229, -0.2231807376228381, -0.1863552144405399, 0.2845291485225064, -0.2214930148661853, 0.2997394853586362, -0.2775544513806205, 0.2192878482274388, -0.2043645340372681, -0.3563931110814781, -0.3179932462201432, 0.08710343763740742, 0.1227541436169244, 0.3670774181917512, -0.3912408797585705, -0.07545007615211066, -0.1125508015071685, 0.457547660501996, 0.3234495613026624, -0.4767866689458158, 0.4874289517353229, 0.2094886480034216, -0.03962409098388905, 0.312319510627772, 0.4068360125228118, -0.4338349352888858, 0.2289619923855013, -0.3108544423916235, -0.2912270016953355, 0.1178369799659125, 0.3238272804934419, 0.269225115894665, 0.3980602469218585, -0.3811841149802002, 0.05387197560349388, -0.3293272052593006, 0.4301950309942166, 0.2750319995947759, 0.3990199931406992, -0.2829810332155919, 0.4001913505769529, -0.412115583155358, 0.2823718538425732, 0.0320772992130729, 0.4504253314577161, 0.392397792959771, 0.4509477889868188, -0.1715278968548066, 0.3480773274079325, 0.2755703170670059, -0.1411878199508357, 0.3216773456994804, -0.01801708364766885, 0.311835473781375, 0.1357517599294669, -0.1088763669174521, 0.3729389169593057, -0.1341950886602085, 0.08619645218993183, -0.4126134431041599, 0.4839408008987744, -0.09357379470599396, 0.3564099140259039, 0.3844421645076828, 0.02326580393401579, -0.1026234885609051, -0.4451085618064428, -0.05132124071396429, -0.3270730629107346, 0.4527862182423638, 0.1692556863845881, -0.4280469863762492, -0.4582179446909002, -0.05423632662059103, 0.09735707598978842, 0.4894924621576937, -0.1505848949992797, 0.05506364128456986, -0.1809297714682115, -0.3048490819445823, -0.1635878349575518, 0.1963228421971271, -0.495683329672487, 0.3339896310284835, -0.0335796311310258, 0.1472790507629507, -0.3037286329777318, -0.1319440345137819, -0.4752430905307407, 0.2912435935111897, -0.04575603978867737, 0.4964019379515029, -0.3010600763042785, -0.2056129401261118, 0.3846304689256665, 0.2359581731688853, 0.2080125265017535, 0.4360449899503928, -0.3318872550883495, 0.3787991313981985, 0.3933442354243193, 0.3367943383161496, 0.4431194037609841, 0.4351543942809239, -0.2196296320345791, 0.05083344483321228, 0.4263101666822611, 0.1375617127109141, -0.392972825045219, -0.2536110890813223, 0.329110411381866, -0.06120877785664458, 0.4252798361355811, 0.3423364557522984, -0.247461814315739, -0.08399376579746309, -0.008685739947802307, -0.04259121722662418, 0.279671550160121, 0.006712449484836513, -0.2524585415387799, -0.2705831504069668, 0.009607315781097851, -0.05410155383747933, 0.03270743089693575, -0.1070618506631095, -0.3304797046512712, -0.2762991243217952, -0.1688340184055039, -0.1589703895440003, -0.3994371518673495, -0.2820482305924238, -0.3206987414264041, -0.4442155413127188, -0.3400657813650336, -0.0222706573062737, 0.09165024776954674, -0.424876739261991, -0.3840699391706932, 0.1949588313996809, -0.1652981164825799, 0.4407600856513588, -0.3503212753816934, -0.2469863961638599, 0.2774821304191133, -0.1018154212368092, 0.1729412594319394, -0.2227037711690807, 0.3473544053676054, -0.04981834714008231, 0.2778389460317907, -0.393299016501937, 0.1809317898579589, -0.2128973510213445, 0.05055236508542044, -0.2835976093608548, 0.1797969648903014, 0.2146623661787493, -0.05294224889361832, -0.4897065122420058, -0.4467473109566578, 0.05329922725070682, -0.2725920019254653, -0.2643044328381666, 0.1056030403067398, -0.1082489912660029, 0.2096592924938853, -0.2929294304327443, -0.02198350098340233, 0.3241772292294434, 0.4173444928216489, 0.3082341997922557, 0.2666979766295748, -0.4343692487731433, -0.4352225316386775, 0.05155518024766592, -0.0335448042180132, 0.23732697252991, 0.3277266439179548, -0.1753115768895073, -0.3104519740727041, 0.1106105570730803, -0.06953689063411994, 0.3707992759862911, 0.3998297065961313, 0.4803324981332793, -0.4156997722816217, 0.07851486801688116, 0.1954157689861788, 0.03273030902789274, 0.08783794813314509, 0.2478659867967354, -0.4134401730475212, 0.3218347000544875, 0.4836459492842524, 0.1946689132497752, -0.2857279027584812, 0.1944536410781132, 0.3995169188833453, 0.1923507028415858, 0.01755298268389144, 0.3201685463505958, 0.003494341610863157, -0.2139894644431097, 0.3798604475402494, 0.06717367220974745, 0.3344382377375671, -0.1514765556026903, -0.1999279263430166, 0.1545864815047021, 0.1781636088345981, -0.02001121908678765, -0.2163755667939043, -0.3938346538896927, -0.138095083686648, -0.3299016502417592, -0.420868950455838, -0.05265327645306891, 0.2476779352071478, 0.284501365747993, 0.4744122843109, -0.1576026250752597, 0.02940653208164267, -0.4489165526453426, -0.3428606172827843, 0.01532974434262977, 0.2594481885391461, -0.1234822390577753, -0.294392853317694, 0.1602724364688005, -0.4327876072357958, 0.2180390443534051, -0.02253374427611129, 0.07023621609911146, -0.4933454124225981, -0.1434495521911651, -0.365320009116698, 0.3428036909749749, 0.2055308724313653, -0.06354926133693628, 0.006679438290502604, -0.1208002798356117, 0.4277695123701215, 0.2811657426791106, -0.0166683227367086, -0.210112438402191, 0.4554817541295112, 0.06791873256113323, 0.2368771018166454, 0.2076050316033756, -0.1456430829869172, 0.2134337140598277, -0.4483871330301822, 0.3809011057931156, 0.2999553493029659, -0.2991718569901108, -0.110155534727898, 0.0458448836063509, 0.09514026302918205, 0.07563706527935388, -0.3085288036355138, 0.1798600994614662, -0.1861706095565036, 0.178564493477608, -0.2852141447452267, -0.1948336802102136, -0.4620069443116029, -0.1510180829971658, -0.3302213231489029, 0.2308106756880701, 0.3046363431468452, 0.1652829940205191, -0.3988803092034089, 0.2310355836683741, -0.04885013774363468, 0.1008663163166763, -0.4954618668447713, -0.1024898030506103, -0.3457174783939795, 0.2595684273709493, -0.3853120507199081, 0.007939878801439992, -0.02013768125532626, -0.3314860942309844, -0.1152865119192257, -0.2404611224176261, -0.1210671973587338, 0.2718664668236682, 0.3020493273311283, 0.4751119769635652, -0.1496340579702626, 0.4981895587274708, 0.1412656502916531, 0.1711974367333286, 0.1662074628002311, 0.3752248436611649, 0.4914716054792305, 0.1959042608253212, -0.2522865784132325, -0.3486089137609159, -0.07095907189462292, -0.4452641731804535, 0.3190737202852376, 0.04137731601548256, 0.2895277448881081, -0.2320779034551596, -0.3629546192767819, 0.3142072240888175, 0.1722522269339544, -0.1993678210765905, 0.07576380464051097, 0.2855422719314425, 0.3115983320454128, -0.4462687944385875, 0.449457214030188, -0.3034739221333775, -0.1849132947580621, -0.1687561619662483, 0.4673417991335083, -0.385706473238627, -0.1934309894548307, -0.1714057635949556, -0.3870988524756386, 0.4533847054997096, -0.497459669595647, 0.2815034101373453, 0.3246475943395897, 0.4926235247578994, -0.02573107976969084, -0.4229309298417105, -0.3455924630847848, 0.4081576488699773, -0.3763837376138578, 0.4688170224033774, -0.05605599469424321, 0.4138840437858726, -0.2747446746299614, 0.06813564875706907, 0.2335482381983526, 0.3833651032879218, 0.4027129439324835, -0.1898953080476392, 0.1909904290570504, 0.1923386128865112, -0.1474010896045281, 0.1331260103451585, 0.3767370334658889, 0.1848150042814744, 0.4594847140220417, 0.3591662126351302, 0.2969049849871468, -0.2506277204742192, -0.3205927703553005, 0.3965782327413892, -0.2854416530866961, -0.3122269168359944, 0.1814629506047367, -0.4465509729340167, -0.3211188121367731, -0.3504443436118345, -0.3724928248343776, -0.1728445392441212, -0.4394774567054014, -0.2536606335796698, -0.2105627500966949, 0.00667201332127304, -0.3370845130817427, 0.01964113559557179, -0.4101331359288344, 0.3936988319706632, -0.07790275177820716, 0.4736938946757903, -0.2997540192677425, -0.3899043676862047, 0.1691192563945051, 0.06055191371615598, 0.2481976154950437, 0.06277396278863494, -0.2613335967634626, 0.2191045514394993, -0.07701560200822258, -0.4719539395012244, 0.5013979697302622, 0.107814493577646, 0.4286416187628809, -0.2794975421059644, 0.3012388599842238, 0.09862452815989718, -0.2416747184793517, 0.4991535681627303, 0.2601237363037411, -0.1166402830119233, -0.1931617676967314, 0.3115835320266898, 0.1327815054423172, 0.09480103869624297, -0.1671029360450772, 0.2879912774303068, -0.3718970940932334, -0.08435838662966584, 0.1746183856607303, 0.04607716053372046, -0.1085616197881445, 0.3841714983919294, 0.1506191479577471, -0.4417996326611047, -0.06108213409548324, -0.09338321180201006, 0.1220305397062743, 0.1768973462425605, -0.3756287661501755, -0.452465003266624, 0.2033995104942678, -0.384304649277835, 0.1585526880608812, 0.1268559554301407, -0.168687500046692, -0.03511018591158443, -0.2763854891027964, 0.09164936126728561, -0.04419080268124865, 0.4893194300063317, 0.4705181732875527, 0.2718114621055577, 0.3108653802576289, 0.0983039883888811, -0.1203090299946764, -0.3632656735662677, -0.111958194809015, 0.006147185576216851, 0.05335143932763087, -0.4285215465019092, -0.445299350631097, 0.4436624464316584, 0.455161083934438, 0.2133497464067068, -0.4969072905354701, -0.1006043728443814, -0.379803541526107, 0.1245056081677348, -0.4214395945525913, -0.2562421415348813, 0.1688138682940618, 0.2809769888946381, -0.1398339285296344, -0.1713715361882323, -0.0933312399859807, 0.1890995903424898, 0.2937045869455239, 0.1379440488867544, -0.2182514024474263, -0.2474488814747833, 0.1281229707938059, -0.2465429848653019, -0.4778674255816611, -0.06074334664271562, 0.3502434165858346, -0.09507262015705238, 0.07956406176691479, -0.2574347430330948, 0.4065484582667153, -0.3680059820577232, -0.1922121540965877, 0.4619166459290931, -0.431094883113276, -0.2420157890385531, 0.1815763298484395, -0.4349066312820994, 0.1781369538790292, 0.2974824066748625, 0.199637841557489, 0.2387841074507442, -0.4684477815607455, -0.1304721441342034, 0.01927216781803551, -0.09338293939246839, 0.1913348323938276, 0.4314005678885452, -0.408083708646627, -0.02474955056258581, 0.06328340424918828, -0.1259841981216494, 0.2400265986081309, -0.3036153785376986, 0.1220089201282257, 0.2656489074488014, 0.139351918020382, -0.02987411195118191, -0.3303636280385438, -0.2887633106618949, 0.2094675319779047, -0.4284853641542072, -0.1605734967908699, -0.4808725071981886, -0.4659344488596239, -0.08872123648818642, -0.2160514619741829, };



double sigmoid(double x){
    return 1 / (1 + exp(-1 * x));
}

#endif