#ifndef KPNN_H
#define KPNN_H

#include <math.h>


// use net Pnet => 128x16x2 => opS /egS outputs
#define N_INPUTS   (64 * 2)
#define N_HIDDEN   (8)

double OUTPUT_BIAS = -1.880923481688351;
double HIDDEN_BIAS[N_HIDDEN] = {408.3141320960898, 374.6448164612249, -331.5280917826589, -259.4764769023492, 186.5878082200252, 137.2707480758107, -39.74976697703993, 174.6700106873422, };
double OUTPUT_WEIGHTS[N_HIDDEN] = {2.084989506150398, 3.716111506822679, -0.04074988924586543, -1.758683855129376, -1.347988153025665, 2.515868746615479, -0.8294544339073426, 3.813324349749855, };


double HIDDEN_WEIGHTS[N_INPUTS * N_HIDDEN] = {374, 172, -286, 386, 195, 321, 27, 269, -32.09038968190046, -370.782655239198, -49.93978498773273, 343.4576535052232, 67.22485779258966, -118.9920081030628, -117.4966501096526, -280.4774893196149, 269.1689456521269, -174.6408825912044, -361.7232770695, -149.2102476164257, 315.0192862403601, 196.8841226209007, -356.5140629662023, 364.7765688669521, -37.80050787221917, -22.60550567714392, -268.3522482305269, -9.758497642454849, 400.0809831612881, -230.5520448339435, 191.6401813206743, 30.39743919114672, 322.3868197145612, 311.9658239477124, -15.88359802737029, -199.3542093416948, 219.7666309971238, -384.3917478858596, -352.8947823611615, 221.8169280529085, 77.68995508377668, -33.87996269363205, -171.0904591771111, 143.4270120421458, 226.4397455795749, 86.37054598137526, 276.2774517462799, -235.7330310381716, -65.27616245159686, 306.6747072592442, 36.67089179114033, -121.6554923067658, -228.0260461020612, -287.2327462886497, 250.6372535243471, 108.2142829867155, 97, 39, 126, -278, 202, 367, 121, 137, 273, -294, 314, -252, 166, 9, 11, -158, 355.1754973903659, 214.4122570000777, 41.59897081225586, -124.352312786571, 346.8341879243067, -82.73695146936636, 27.20871789083845, -114.9990648376575, 266.063294879626, 88.77853910564708, -215.8030112419801, -376.9751636534507, 210.6108202198436, -348.8521336149386, -212.9919571033226, 341.4019392353557, 86.82843496301331, -19.9097458713801, -323.4408654637601, 346.7179266000558, -75.8482635440682, 177.9492804236077, -289.6102297520908, -196.837126342489, 320.1022526010781, 99.71001600405376, 412.9482786671991, 80.13533009952305, -310.0468071853537, 6.803110519445041, -27.3805267325935, -322.2217495428348, -168.0884365554012, -378.4559920110191, 391.3847100409989, -202.0050967962801, 379.0040934452411, 13.16091251375969, -251.8981576549257, 259.6904532747686, 164.5988455520368, -72.17958595066528, -73.60245860884127, -402.2526472005342, 1.013225058514801, 145.5445706583419, 354.404316561643, 109.3516856379054, 135, 82, 37, -334, -121, 159, 317, 229, -157, -35, 345, -65, 375, -97, -343, 256, 361.0810463566913, -332.0425736056147, 108.5986678522893, 348.7688584483695, -294.0404487854652, 258.7580959614958, 228.7362373793417, -84.96479366936278, -220.9170661603522, 168.1119869452224, 355.2011663807188, -243.5603544014312, 368.7128974915364, 312.0190215786127, -103.1814870998869, 105.5315965914849, -364.607150530334, 339.4309947380898, -209.9573205403229, 397.9393344602179, -253.4505804831389, -270.7848053297785, 188.9681048663361, -40.74182504025538, -265.163810682197, 143.8016315420406, -25.3229676161766, -309.0662610354928, 89.09901470376985, -335.1459423075818, 12.57935545132438, 44.33160862203196, -289.6659016617845, -299.7240247039657, -369.8164072296049, -177.6338463814833, 294.7997869531316, -139.6392466143703, -280.6940727033946, 80.04295642719902, -377.8665407739069, -381.5342198864194, -125.5495140484212, 356.1655699927414, -17.3302787943322, 124.7253563538951, -342.1254966520905, 5.205385206849695, -311, -150, -45, -187, 400, 182, -173, -286, -94, -176, 252, 29, -122, -155, 109, -33, -68.71695895800642, -249.2390354454695, -202.3106130369484, 259.2380489934756, 15.99475348374398, -102.9010706984789, 371.2764959482857, -330.1988592481719, 378.8445510071568, -159.8829568541952, -387.9811495859601, -56.64263127329305, -15.04415785010086, -320.1488719247891, 352.3763185550509, 94.55047822356218, 391.0071864815845, 392.3910184528791, -46.66484406960332, 381.1889008958875, 168.7481736469186, 164.175523565919, -309.5630275910956, 109.1073358011613, 409.2358835921723, 4.936657677569674, 201.6636799740117, 330.1097614128722, 260.2268813265322, -100.3583500334427, -97.90908057282327, 206.4718971202936, 90.81433475443141, -250.7330772932343, -255.0733532732343, 118.3877386209308, -297.386743797555, -279.9443580434022, 186.1271500151755, -307.3305596511018, 387.987907663286, 226.5955678631566, -315.9248775742058, -22.79393229848965, -66.73534291201042, 106.3213962640299, 138.9519806017527, -74.52920912222697, 51, -373, 312, -195, -157, 47, -38, -165, -367, -253, -248, -89, 41, -316, -283, 150, 225.6637019178737, -163.2226193647126, -142.2910114142402, -30.7807720277626, 385.1782560049099, 97.76394377961563, -334.9099948275395, 334.2032767553545, 364.507109447182, -286.9210223588626, 344.7349798945536, -131.2058243813599, 220.0821149028685, -314.7299768304613, -206.7422987069302, -129.9147573165091, -283.8332347579371, 161.7261616784695, -300.7246438682583, -399.2297398517594, -185.7797277749166, -277.6564641887034, -179.9725944621855, 295.2142203789749, -137.8257448995794, -333.8784407801203, -184.827964914639, -50.29878339805549, 162.8393485268486, 372.1516729149407, 130.0446082171773, -337.0013815197972, 260.2743397140199, 63.6816055973171, 39.42279392648086, 239.4123160073593, -217.5765679774665, 111.9434856999367, -190.3265728915478, -317.0797777601711, 220.0396263542135, 215.656903367, -25.14012269483912, -328.2987808967487, 294.7204474691387, -183.7522626990419, 361.4013577173905, 53.61588530864788, 375, 122, 64, 230, 236, -52, 118, -303, -369, -36, -305, 198, -73, 242, -85, -225, -99.145992041089, 345.121059615649, -378.4035006677934, 54.80379132291654, 33.12112815488955, 259.0699908984525, -188.7268009408946, 322.5516860242429, 82.51550430796971, -165.4394791206026, 41.10669516291946, -343.3719425141624, 45.97933755911082, -4.333211301431453, -241.3713206740302, -343.5260736563998, -280.7748305755533, -139.8261334886448, -44.37123492272521, 364.2199909422813, 217.8396518894417, -338.3179263695403, 107.0700356270584, -79.94403790955795, 30.15124817620099, -142.3832802788129, 148.04130357533, 11.18367586615049, -311.3640207193045, -351.2109621315468, 200.8352110563358, -339.7521380997837, -404.6029811610479, -168.7589760736687, -231.2275066790747, -319.0408211271132, 149.4130878973891, -14.97772280575361, 40.69008973680553, 281.8518969203016, 207.2675561003456, -310.0903039395809, 339.0380533679925, 311.2507801345375, 91.40018831892172, 144.8318301735227, 28.0870438757177, -135.9090591364594, -393, 379, -173, 221, -354, -22, 161, -274, 224, -100, -220, -40, -47, 361, 1, -45, 231.3553655881731, -184.8032748904934, -313.5637353924946, -359.8055867957305, 188.8113825843559, 180.356834685117, 351.4505020238711, -343.566926203245, 280.8738862516859, 268.9164868517639, 346.3578651923529, 405.3275675408629, -305.0279370923419, -19.34315611505448, -145.4911246999306, -316.0543358724365, -14.58051498942333, -247.8776086937834, -54.64040988544262, -338.2677999022044, -236.661611231897, -286.6770691842675, 214.876701868575, 24.85756026698329, -0.09958259324874306, -382.5807287792827, 424.3034094212761, 346.439624087032, -7.461365154052805, -354.2622455025959, 359.3227844328053, 312.3210179819679, -144.0316977301511, -325.7704686242802, 364.0781530752988, 97.23832272975761, -123.0857715211601, 279.9355218412261, 132.6940335727447, 155.4882002700992, -200.4557690276807, 81.95133048253162, 161.4602845598211, -136.8359270559876, -345.1151007069561, 78.14476741559832, -61.33430869389596, -325.4131500921449, 225, -75, -287, 392, 25, -14, 32, -376, -9, -321, 24, -395, -272, -21, -44, -370, -312.3640908844447, -111.9311047805886, 115.8002256429279, -48.74505263352032, -217.7081358214294, -168.4934671693547, -274.6527938716894, -370.149767826276, 316.4444433692894, -66.26430605038225, -100.0694772473843, 14.29377565891227, -378.7346643779275, -111.637542715647, -269.0956665637342, 234.0878006385196, 216.0465551876223, 275.9533225389627, -109.3524290147833, -167.1778678405318, -105.3193884805088, -55.75294651978393, 311.4348645407849, 256.6948917253947, 45.96543271657786, 379.4129363666769, -70.04620745588001, -185.9983539127282, -43.68360805963606, 300.014392252571, -163.938356878744, -312.3261462814812, 241.5799760242896, 370.3508585481442, 61.64065835465393, -412.4656401599236, -181.0021402834137, -194.0445832143141, 75.59535692034433, 166.6131484188877, 134.0994336355277, 406.7510633203028, 245.3972648627675, 152.4455499233979, 313.0156080937389, 371.1281876204599, -345.9776172191653, 149.5653257474166, 256, 362, 19, -266, -79, 374, 51, 7, 353, 21, 221, 359, -101, 112, -353, 174, 104.4362533071607, -258.6537832299028, -172.9074757020617, -93.34621749439123, -52.47499060683089, 326.8380328579441, 140.9338129733495, 112.338562176573, 287.6706242920491, -33.44006727291066, 347.2031111363692, 222.4056734161322, 359.8691766839279, 345.1844388997513, -376.7010864635172, 229.98520711594, 289.5390475515971, 25.6843176315488, -5.511136223102763, 265.9621451531551, -340.3720347933066, -345.1436985893724, -116.7304869590727, -366.3685380387931, -278.2091732295477, 131.7744377347186, 366.9943915576847, -312.4966260924687, -155.0446346265088, 71.57941139742239, 228.4592459134739, -28.80558075219232, 172.2575912468008, -319.0213894909188, 264.5796896575671, 169.0688118596826, 393.6625409162117, -335.3721980367221, 319.1826385544214, -30.38408666707899, 29.39208431068083, 261.148267453165, -228.162537671755, -349.5776585976595, -170.2068525530754, 268.3891471061497, 264.9221086412054, 160.7163122032463, -99, 315, 52, -390, 20, -21, -377, 145, -274, 42, 216, -16, 157, 61, 359, -398, 127.8693560896584, -91.66338677766043, 182.1004162816793, -198.042455182541, -31.61319739899943, -213.9285809806406, 132.6501607036594, 24.4202662596107, -387.9542943442259, 329.9925465164641, 48.33369636262893, -175.1085316885821, -126.8083318354793, 373.0918159446196, -377.4719803390099, 135.3789988757641, 304.9904008038957, -289.8741743531431, -214.4678559203163, -98.94239025384785, 88.00226640598974, -172.9361171189712, -340.9061348312366, 228.5985397283869, -87.87032286757946, 266.0792256666293, 260.5017391615458, -324.1297155164773, 389.5212151609951, 220.3605787381441, -328.5050953171448, 121.6120733522559, 152.8072491302794, -108.3547353362052, -70.93162345661207, -279.181459551552, 45.78451702539156, -339.8182481405518, -205.7805526236854, -284.235945421271, 66.31968308499754, 270.1099689447487, 377.2979019473134, 302.786893007007, -142.0431043441802, 69.18620708675101, -301.0007831212836, -237.6023830017332, 168, -112, -295, -139, 110, 203, 127, 70, -283, -23, 138, -308, 234, -143, -148, -13, 136.0223639351013, 194.3925154722273, -266.3457899511423, 271.4008452272156, 252.1394354423181, -69.49595862253528, 372.8562091582288, -83.38944381914934, 252.3620046327542, 341.6927328185164, -182.4047802692774, -302.9820315436287, 22.11884294249004, -80.1396534790447, 287.7018223042658, 233.5000905321447, 213.4286511598158, 402.4945605434748, 150.6960656177156, 362.7860686545633, -161.8168309007071, -140.7072493238723, 24.42419213741433, -40.35472533985936, -117.6705257678236, 223.2834456990435, 68.3513069978398, 158.331715307006, -314.549462430666, -48.06191850053303, -231.4356538510287, -141.5237881601625, -264.9309155023532, 370.291913639846, -241.5497379645288, 68.65789545308526, 344.9968589667435, 166.1119821399014, 395.6885897804213, 154.0265337340676, -230.2854154853034, 264.9806161875284, -77.02891859211867, -168.9060004928771, 231.3497560947164, 230.4617205519006, -336.9686901246158, -343.1288295303345, -125, -150, 80, 120, 118, -293, -317, 58, -31, -215, -168, 39, 139, -359, -42, -67, 30.82693865554689, 68.07272135989922, 403.1500661678987, -22.49122120727885, 290.5876499970828, 45.3330715487627, 168.0813960642297, -345.6044358276744, 335.1137494370624, 117.5885707883511, 314.0234020003435, 176.5829774259882, -56.41261672026039, 36.97795991238861, -103.9478460123395, 215.4198607981478, 284.4118357741512, 360.0776956730812, -51.20219574723338, -351.4044769607097, 150.2701256252317, -316.9025692340313, 109.5886405790287, -295.8438660119201, -121.1699794369884, 10.6770381919873, -204.8022180249195, -395.7426627458572, 20.58024344263405, 148.6861458977314, -64.99251149862947, -342.4827503137414, 276.1268686540013, 377.8966554106146, -298.9154955463177, -203.0099507283349, 13.3081728165663, 254.6363796725046, -158.0678795449959, -27.89673466310979, -13.96515096554265, 230.5677934136776, 192.1695928626761, 356.3268004188286, -121.4706248199759, -320.1793257525477, -175.6761662357775, -252.7888024900231, 102, 171, -191, -169, -103, -36, 377, 161, 351, 209, -189, -374, -49, -205, 144, 279, -235.8663291399692, 206.7674346708602, -302.0985467342057, 179.4261238193949, -266.4444225911641, -436.5529159891488, 175.9450253049681, 125.3890175606629, 226.1708232520137, -354.3894527448926, -268.7463604276165, -286.4178450881911, 141.7874793393774, -31.48643253358709, 329.5580353414595, -153.9628420643347, 167.8475730706994, -257.3568802966322, -246.3374495738428, -342.5782769542581, -243.8793864677084, 170.7728620065184, -120.5474309674974, -307.8117236762581, -13.94720726971193, 106.6561498348398, 177.4257617682876, 323.5716721490072, 271.6196472510218, -75.52129258191906, -138.8964599316242, -324.3300870525571, 221.933477285128, -51.9507870780109, -91.96628867905449, 367.5891138104615, -25.76135310736613, 154.3729732148557, -245.282173079918, 261.9812951095921, -160.9231594472892, -90.8894362017392, 55.8864395118043, -385.308004642822, -85.37525546459857, -17.76861870573677, 339.1306680315241, 155.894388367705, -227, -325, 235, -70, 246, 173, -314, 274, -126, 267, -148, 217, 241, 108, -64, -301, -345.1891049184964, -105.0660919954754, -332.5618829774835, -333.4227752579329, -332.1569394737558, 280.9530503653142, 327.5828274535406, -93.57286582517681, -229.5930272326597, 1.117637200926978, 361.8036883082154, 103.0803968667148, -2.057759008362532, 299.2377689946857, 295.8055080497048, 188.0015267540763, 358.9046804019284, 147.4479661157764, 168.7987236701637, -164.3425538891066, 347.7309450596938, 222.810054644333, 184.7182067644419, -191.6559260185033, -254.8521776586047, -383.3569070157412, 64.89686370842863, 34.55149737318676, 133.2202819817879, -377.1596245961379, 149.7890334421162, -136.238282068825, -94.05467195626623, -129.2924519468441, 360.0476089173271, -368.380524565831, -287.1195249739646, -34.95926396202631, -63.45796991588087, -107.8705262437851, -34.85777641209886, -127.6621311232634, 35.80307186609496, 387.2403173160287, -202.3912037155163, -59.86522055412966, 131.213056158082, 185.1639211724325, 155, -75, 114, 114, 216, -103, -6, 374, 380, -309, -331, 122, -277, 214, 21, -303, -340.9566781404317, -14.6845939822264, -276.7815084151144, -176.3331362243781, 354.7059084781047, -295.2790069733809, -236.6597279513162, 374.0081985342661, 35.00646191746135, -117.3090801032496, 352.6535548552658, -149.6283078280867, -99.27167210818955, -218.443651578649, 82.03653025471725, -341.3798540083528, -251.1387055462058, 258.4719373889855, -168.9983065143428, 356.0073338172152, 207.3853818830688, 210.2984207700369, -27.40099116422338, 154.4625016525211, -48.07358431563534, 91.09470316045912, 371.3957127272668, -285.6623275058623, -145.5883720807386, -35.29384929219826, -179.9786750834541, 398.8982446680338, 21.28370835617466, -73.00519255810273, -189.5800749541334, -372.5625703990947, 45.53218168963853, -383.3581109707364, 383.268567407426, 106.4260663273234, -99.18410932342769, 352.3562644421038, 8.265936275908622, 162.5029268853472, 177.2416121146405, 132.036804426257, -109.3829196104453, 309.506685998542, -16, 102, 283, -216, 357, 320, 363, -97, -375, -39, -332, -104, 331, -118, 334, -61, -127.3893680621438, 168.1843128627685, 394.9193766388066, -44.53351341677291, 212.597395530691, 350.7490794034152, 119.5036338321941, 129.5697419313574, -69.05615990284099, -276.2599488505673, -85.32492936127674, -287.5109202567586, 235.9064230992953, 197.1399948869023, -368.3731943463417, 256.328193526372, 341.103392251099, -44.81468234658035, -339.8016695638517, -68.79658909483713, -125.0896862804445, 59.99177628236022, -93.43342242983266, -102.5998432721401, -369.3074348717251, -7.493125735359495, -136.7979019005268, -3.696757663317825, -81.58248892759312, 228.4228273654388, -4.620189320805707, 173.3532852155814, 14.50335558846131, -38.67482873950726, 189.0415229818109, 225.3349224146968, 388.5874785267007, -95.70124006192731, -65.89865733984335, -47.79854973639929, -376.6807992757459, -77.03379386818179, 55.89645733919981, -58.60458178175399, 160.9454890972897, -285.0376251914349, -205.7857828090327, 94.73747328268153, 89, 276, -336, 18, -69, -33, -28, 395, };



double sigmoid(double x){
    return 1 / (1 + exp(-1 * x));
}

#endif