#ifndef KPNN_H
#define KPNN_H

#include <math.h>


// use net Pnet => 128x16x2 => opS /egS outputs
#define N_INPUTS   (64 * 2)
#define N_HIDDEN   (8)


double OUTPUT_BIAS = -3.275662954549518;
double HIDDEN_BIAS[N_HIDDEN] = {8.500533186594968, -338.4755457882047, -483.5564583399341, -422.9850799832522, -512.0668144630783, -147.5601793932663, 14.56448907179474, -377.6764265684025, };
double OUTPUT_WEIGHTS[N_HIDDEN] = {10.12127579737535, 255.9397890843777, 93.14647934841443, 362.1212128603889, 492.8761761527089, 48.25999698765867, 26.79898433011298, 391.6985631355569, };


double HIDDEN_WEIGHTS[N_INPUTS * N_HIDDEN] = {0.2281528887004372, 0.08403323385120987, 0.2437570773734511, 0.1971495382940162, 0.03873036174975819, 0.04883303518818366, 0.2146090617005755, 0.423646761534571, 49.98032024605164, 128.6002222583383, -69.93134142342193, 44.59482587665948, 207.4849179732864, 461.7371921241893, -119.1799934008389, -39.60877698823129, -16.08986772079096, 203.9354851781054, -233.7182131796091, -96.97083937831617, -46.01403108677006, 226.0988136714456, 118.8517088318458, -113.8896508343657, -101.6058966213055, 275.801039048034, -19.19149842504029, -343.4426887191829, -25.92363954623299, -96.59736507262731, -107.6738590477316, -254.5897801276558, -62.71788168924234, 276.0796280153704, -31.23282988679857, -179.6968556101193, -316.6615064996544, -105.4400572146076, -178.0908238679721, -127.4509551852649, -226.5775723414154, -111.6619676949048, 365.5366811941332, 152.5185931459161, -150.1838107932111, -2.338467097266954, -233.684349552115, -224.4540034208146, -121.6002241063554, -307.9522564889037, 28.95576123747231, 96.8394543546142, -119.4388036258582, 11.91047312846927, -274.0055148932715, 166.5707133997817, 0.1562021303252327, 0.2214568959183325, -0.3037851540389401, 0.4170404495285081, 0.09093434810216278, 0.4835293586289181, 0.4060316574322207, -0.4555549658627971, 0.01460094773890497, 0.0921724036299495, -0.4633139180779987, 0.09450557250273672, 0.4929222119939151, 0.4525738921726932, 0.3526686853043124, -0.07156670772077833, 66.83809727895206, -59.37475089731031, -76.2057411418011, -74.08872456490012, 33.13331419894187, -210.9845152737281, -6.214178951234321, -62.36060297148724, 25.91298868201971, 22.30696014588761, 399.8238882858096, -115.6236998399925, -35.6173046864134, -97.98865376161709, 12.51702171382925, -175.0054936896502, 112.7958792188748, 261.3101238638605, 34.2365093348375, -170.6706998641607, 120.8193173960124, 33.04192980848402, -124.33164573033, -241.2591524796274, -424.2893836252647, -162.6822065209024, -225.2171742405594, 314.6605722575941, 35.94275035133715, 98.9796622846608, -163.0487736707248, 103.2811757471077, -205.3134869491179, -502.443618446442, 51.38496671476279, 67.99901240310608, 34.68580751074531, 10.12746892457938, -250.3556371838701, 93.34981769297303, -113.2773436100993, -842.9589478372343, -117.8493651638492, -41.04557977400359, 196.0681383315255, 2.234734568807642, -144.1069267399368, 316.5696576026202, 0.1630808965596747, 0.1964684136661088, -0.07687962594296771, -0.3085589552338044, -0.2183524415448087, -0.1442354254630559, -0.2655978592883785, -0.04100089312577659, -0.1749051425954816, 0.3718688100911066, 0.1292728672871705, -0.2530009680208755, -0.1379958361564184, -0.2720200800206606, 0.1456232185687978, 0.0893488896961086, -100.4839844091154, -69.77723193598271, -41.78702685222104, -2.326691884655515, 0.49705325666128, -81.71188795184288, -115.7060347998312, -102.8422873413022, -47.72099321836372, -59.88664254521449, -53.65184009215355, -26.80152946534674, -7.151309637806097, -36.36178632293722, -69.31632343040442, -87.57779562704715, -53.44604913597341, -27.87208603488442, -53.50139745415218, -25.34155060139946, -49.57931589479945, -43.57545515221355, -45.02925028529383, -63.66140053343092, -21.21477813309848, -15.33817451740222, -8.92389705847687, -27.33839803080549, -36.05748009428497, -29.31700495079069, -12.69220995339378, -16.10328799100286, -15.24588651862745, -3.066951293008871, 4.13206214196023, -2.584047384357148, -3.496148336441259, -6.023204359795466, -5.613898307317791, -2.998330427825484, -3.556874615066266, -29.14802046586605, 1.214803025067515, -0.7406257251549369, -0.6492515640806659, -1.51950483620873, -1.378479639567117, 2.056187986968645, 0.3274874355771986, 0.1571251422432834, 0.00478540477565742, 0.01275708736514536, 0.1581960467892681, 0.4537619678088287, 0.02312159655761048, 0.03113576096069803, -0.4679886023364908, 0.2804851381948614, 0.2660796399070321, -0.1617592515711482, 0.1834718984009102, 0.09037240808381347, -0.1345999853846617, -0.3457964443814924, 0.002381088035295964, -1.93676849670414, -3.325026392800271, 0.3760793827274751, -0.3560589830908653, -5.203391463346224, -2.156909025074174, 0.1561361140951783, -0.9268954299055305, 0.5016200142827321, 4.430409625529996, -5.509128183576279, -2.531363228825816, -5.542293757214006, 0.6357928189236856, -3.462774414666449, 8.476500311317, -0.6819040861052369, -12.47281430119925, -21.35317011541801, 0.4785135092953051, -12.53973595761455, -13.7841834419962, -11.61557559037501, -51.54677773289972, -24.12164748103443, -55.25941339055866, -9.603997437400166, -33.894368440516, -33.77074088844294, -40.61100064683446, -45.64100522949148, -56.48896095291858, -61.94012431851969, -37.48533104457449, -35.02701123416842, -65.4229713064486, -43.52541191978079, -102.8529681541649, -91.2663339177025, -81.93617949158748, -67.30449913857026, -44.55367558264004, -2.613090415855626, 2.146377846529681, -126.5805967340853, -109.5515123495927, -88.37708166101488, 0.004707963440896912, -0.04892784615463008, 0.05263916009694297, -0.405813181728969, 0.4152203290328478, 0.06737069718882938, 0.2156770721616582, -0.3401463580504741, -0.1518181262779134, 0.1754080740154759, -0.4120411467328859, 0.2193654583391573, -0.4994609095153683, -0.3297323793311289, -0.2047101313735872, -0.2240073060262983, -118.8736002831181, -171.554221236974, -130.5023499783287, -3.245652712307869, 123.9088921148867, -169.3348074962807, -162.3201813087535, -50.60964455716455, -276.5543319324009, 21.80402607889666, -180.93862487176, -80.75973454623136, 91.38963087465986, -65.73193119302817, -91.92243923571856, -266.7186305339737, -118.6617490275245, 15.40049372745203, -153.9563629239808, 41.56532399547047, -146.8654210288445, -136.2683423983279, 127.3769192910063, -33.46746258542102, -62.66549004535623, 90.53052040949089, 64.07988611299453, -59.97443861229584, 79.80098705520362, -25.70716789833686, 104.4108710372174, 30.04491376335177, 55.4698040556749, 23.07939836277473, 66.50551176231608, 181.2141619061757, -10.11098351031573, -74.0845377218747, -104.634209178327, 218.1871505191748, -83.58390661838936, -116.6313077072112, 84.26206502707785, 7.840370538817027, 82.76743784433363, 96.73458905217062, 9.646345661940114, 55.94316205424722, -0.3480701715909271, 0.3166079268868118, -0.2358750033825053, 0.06850066295289464, 0.1399863789044257, -0.09643669640479458, -0.1667466287811969, -0.3612270950624845, 0.1309604638400304, 0.3173715378238687, 0.1380985223865595, -0.4713747552462736, 0.09677957305534723, -0.0865831666563559, 0.3938193148438909, 0.03846976838003369, 156.9585284101697, 2.037216500390922, -122.6142680504998, -58.33213090002736, 42.40707532059754, -14.48718371528652, -72.32232970192703, 176.7293478529957, -79.71629031852629, 265.7718001722532, 123.2130886144083, -51.79402325708452, -91.19857601245482, -138.9861224289345, 118.4197752020408, 63.20929017744844, 139.2491874993259, 158.2155681018314, -35.63038269499865, 52.5719596312051, 49.3409847637386, -111.992753646511, 0.4929583919186496, 55.49589968718627, 55.25611742658587, 175.2115394871328, -113.0880846919004, 170.1701956172988, -25.560740633909, 169.1354916645831, -253.301968891817, -232.198052198148, -17.93904736683992, 45.30714844463073, 69.07246907793305, 4.193451846323036, -12.6355105070187, 34.49902140693077, -299.650397089101, -329.0881683057256, -42.38771810901824, -333.0372652135806, -52.84925522796133, -15.55628084898308, 227.404932479425, -37.71337752360352, -59.12149145690422, -141.2822568813777, 0.2515942932812471, 0.3883366486468989, -0.476164161216544, -0.4448435995470935, -0.3759636221807281, -0.20430991365775, 0.4896789719302575, -0.3228923542531638, -0.2943571437123963, 0.4528267886269962, 0.3269584867297478, 0.02901246004226266, 0.3097939197019646, -0.4847209043729682, -0.3479287847168412, -0.2944056977491852, -116.3227380459787, -97.85113228504481, -46.67233903293565, -2.236132780584305, -9.134180948120139, -125.5815760060867, -113.7441039895566, -128.0365181026549, -70.52499628565026, -63.78446047831276, -47.17452166440069, -19.34495928723875, -41.01735516647448, -56.78028200225713, -97.98481525459381, -81.9981111332864, -41.24462103510846, -51.51441969256538, -37.15478497432558, -53.45674289440422, -56.38326076528128, -58.44475618472945, -53.81914366207991, -63.60158930045248, -18.21496319756631, -18.93181243965799, -21.40542157586383, -16.85969942216368, -31.47662465738631, -19.44875469249696, -19.38006286933539, -28.47721372856877, -9.960937194254914, -6.030149490940849, -3.024975521891268, 1.183507896849585, -1.380141571070802, -5.759610756917042, -6.3324291697433, -8.635710856829535, -3.164692622967628, -9.942601519744548, -1.012662797437138, -0.681392341628408, -0.3151663533918809, 0.9219704400645276, 0.2220498203791888, -1.39150042612418, -0.07322279343997262, 0.3667174600375432, -0.3967391624565885, -0.3035205345617237, 0.0523193965443966, 0.3607439854465164, -0.3281754184645486, -0.309251878787415, -0.05481438038629216, 0.1761821576748892, 0.1389707660483991, -0.4550936501264077, -0.167389050436853, -0.2072122868649718, 0.3688632416859564, 0.3586360504192468, 0.1864288783475615, -1.204895599850215, -2.980663624583348, -2.240006825417639, -2.12461900824735, -2.629309231442523, -1.863031995400131, -0.9491823438524457, -3.103800716734473, -1.936851436667816, -7.682072653698028, -7.638212852150451, -5.126530298063838, -5.0759549291065, 0.5612197940215882, -3.668739872106627, -14.99804030840715, -19.33877707154723, -26.20102136266803, -18.36871402538618, -20.67287802211963, -12.6648195370905, -12.17516785270861, -10.75833942551649, -36.32970392516882, -41.26489796621599, -39.86235895898351, -61.11053466334027, -55.78984659919024, -48.42981577979167, -44.2365422860257, -49.40791820876867, -62.47227033496701, -47.33108149974098, -59.94100996212032, -38.4165366614398, -71.35116525027875, -63.77325300991519, -93.51245178184178, -89.7339565800863, -99.23517885785286, -72.64297074970652, -41.06730297536214, -5.195984982257705, -10.31801859171495, -132.3991262401272, -115.7637338147312, -128.2229183259576, -0.02955902392489795, 0.3949501486005961, -0.03352284316603227, -0.2162473475170542, 0.003559023376348891, 0.1715061243956472, 0.04224994897015855, 0.2883500562926522, 0.01550585800572574, 0.3456535957966249, -0.09424796122789758, 0.1522933052164937, -0.4820795161566136, 0.3817900716707995, -0.07731678410308285, 0.3404743959384385, -90.0404952246067, -101.5631996223946, -23.09316951349337, -0.3491752448515729, -20.80898536289137, -142.6366123918113, -122.6738633184503, -166.6165781681188, -91.55755774011671, -45.81740693957912, -22.24479541384331, -6.796197839201148, -76.37462969771114, -93.04051418919659, -115.0691215492021, -78.37726853484052, -30.72577770351419, -84.40943804627967, -28.68314710035378, -72.26626940392147, -47.79450649803184, -73.16329815077832, -51.87013555108312, -59.04667458319356, -22.84765421990981, -22.47346842474843, -43.96708522693829, 1.026190098407495, -26.40445854165453, -15.66265352915477, -27.42279953820544, -42.08912368705659, -2.238764942169645, -8.974359653133881, -14.54189767666033, -13.3300961796272, -1.80203843666734, 0.1909637877647571, -6.534629376225999, -15.63218657973285, 0.9051868364203323, 0.6407588424719604, -4.673307767639586, -0.4481284354303161, 0.647667355279674, 5.682169385737287, 5.381418921707269, -2.876348474298139, -0.412115583155358, 0.2823718538425732, 0.0320772992130729, 0.4504253314577161, 0.392397792959771, 0.4509477889868188, -0.1715278968548066, 0.3480773274079325, 0.2755703170670059, -0.1411878199508357, 0.3216773456994804, -0.01801708364766885, 0.311835473781375, 0.1357517599294669, -0.1088763669174521, 0.3729389169593057, -3.909234344181185, 0.6684671086951209, 0.7846247440583419, -1.768013403053375, -2.403353610991027, 0.5756962446373426, -2.821646120478544, -2.070841828645086, -5.144868208902529, -7.66440917652575, -16.88158193376589, -6.172633490986512, -10.17522690764631, -6.789955828278289, -6.751963775993997, -6.810125050967097, -26.53658848167425, -36.03967819379445, -23.52045517055528, -12.03258126399076, -31.52133024870018, -26.05114379182027, -13.12091113305586, -10.43624546893813, -11.22771704938546, -85.50500627802545, -9.866736397855469, -121.876821426828, -52.56395199577762, -92.55283045642418, -54.14681709070801, -58.72784850102071, -76.27515737389616, -43.32491337657444, -51.73513110777637, -56.01083230003552, -100.5670485029173, -63.1375030390484, -95.89880023086023, -77.80963241082283, -91.02272768386486, -85.48318235298866, -24.67472057772878, -2.051164504144508, -20.43638340238537, -133.4608789934414, -100.8298728757012, -164.1070029547811, 0.05083344483321228, 0.4263101666822611, 0.1375617127109141, -0.392972825045219, -0.2536110890813223, 0.329110411381866, -0.06120877785664458, 0.4252798361355811, 0.3423364557522984, -0.247461814315739, -0.08399376579746309, -0.008685739947802307, -0.04259121722662418, 0.279671550160121, 0.006712449484836513, -0.2524585415387799, -37.10475810868529, -33.17041379473406, -16.43992118336078, -0.5518002510748483, -1.419734158476212, -33.95690068908521, -38.00502939706435, -39.39704147306557, -23.14371433620574, -19.96780203161493, -17.48390730987097, -8.001120799184562, -10.22420688010835, -17.85809304331045, -31.16010532028411, -31.72112112806988, -16.14936734049907, -14.9074380222264, -19.33881381426801, -15.3351843220971, -23.15633574181508, -16.9191883931417, -19.11428043971999, -25.63821655750202, -8.278548654789354, -7.164650250201508, -5.789403726669596, -12.4672479942124, -10.1974497066392, -10.96417551250935, -6.421009333241829, -9.973492698717852, -4.437268758366983, -2.176438530640326, -0.5337465895220876, -0.7466990856430734, -0.78449966699548, -2.081789514406123, -2.813674893783829, -2.942257526856253, -1.109805153904244, -6.281259074487254, -0.2882460130797832, -0.2375601791155834, -0.3754033495766735, 0.08647186752794171, -0.6223631482154182, -0.2532061273278538, 0.3241772292294434, 0.4173444928216489, 0.3082341997922557, 0.2666979766295748, -0.4343692487731433, -0.4352225316386775, 0.05155518024766592, -0.0335448042180132, 0.23732697252991, 0.3277266439179548, -0.1753115768895073, -0.3104519740727041, 0.1106105570730803, -0.06953689063411994, 0.3707992759862911, 0.3998297065961313, 1.12553476640912, -0.8977824273457256, -0.9679374954796236, -0.1161344718131071, -0.4011833030431062, -1.39357453643522, -0.7894431488635639, -0.8340939616336752, -0.3267021574691926, -0.02199983923836063, -0.4230924238344179, -2.22082796382573, -1.423380571388107, -1.571864245665213, 0.4170366276930428, -1.650609084230855, -3.442996557798926, -4.343301511291811, -7.156258903833002, -7.600342770942506, -7.652055029692749, -5.855795878555039, -4.763923311904189, -4.61219221649889, -16.0235493390412, -16.77413037464352, -18.86551768055816, -14.78830479282998, -18.75812598513048, -16.31908995558325, -15.56194111808286, -16.94805132917773, -23.93751268522293, -20.7079795287144, -19.12029297126081, -19.1117206294326, -19.59660449146504, -22.56386033572551, -30.80523721512518, -31.21059798240856, -33.04747810450807, -28.59914052070156, -15.48250433816231, -1.399022457287799, -2.076385688710184, -38.10018345696423, -42.29812157987951, -41.18688816984117, 0.07023621609911146, -0.4933454124225981, -0.1434495521911651, -0.365320009116698, 0.3428036909749749, 0.2055308724313653, -0.06354926133693628, 0.006679438290502604, -0.1208002798356117, 0.4277695123701215, 0.2811657426791106, -0.0166683227367086, -0.210112438402191, 0.4554817541295112, 0.06791873256113323, 0.2368771018166454, -235.1074483949757, -177.4044874530063, 111.9298066959102, -99.02269243292787, 140.6039608120064, -108.881498733432, -419.0565556830501, -105.1549452596523, -162.1443448596522, -435.7171658817151, -60.01653968138316, -130.5002368010651, 241.4236642879717, -91.5351503106707, -400.5321363040399, -443.326222680211, -475.670036675416, -518.4907725112275, -204.4310473397908, -122.9405256238087, -85.8022538575088, -86.76281997441619, -125.4260101903666, -103.3598391252104, -486.2358802387998, -270.4372022726923, -355.4249070859036, 53.33746721832089, 251.0415334593998, -110.9338760106378, -37.51787356041262, -109.2516190821943, -240.5625309751663, -177.4538927966047, 277.5164343524999, 310.9057985531542, 252.2161936872007, -9.591006196184081, -185.3816783324332, -97.37403767451856, -218.1777460076853, -219.0909067051973, 252.1242892732791, 253.6500206471881, 152.1893320040685, 61.23910874579012, -46.87637354068107, 158.1122952049271, 0.1959042608253212, -0.2522865784132325, -0.3486089137609159, -0.07095907189462292, -0.4452641731804535, 0.3190737202852376, 0.04137731601548256, 0.2895277448881081, -0.2320779034551596, -0.3629546192767819, 0.3142072240888175, 0.1722522269339544, -0.1993678210765905, 0.07576380464051097, 0.2855422719314425, 0.3115983320454128, 144.3903635632952, -60.46728025915743, -284.3727576487245, 59.04733367262955, 3.332349248452441, -240.8521026186158, -338.3334479607606, -219.5061578316866, 133.1315255790619, 181.3656215134578, 123.7847824830994, -68.42572748099194, 110.657597899882, 5.923729089585869, 396.1644952263918, -9.444772802564867, 83.75082657680794, 43.03075972737812, 18.08316136976092, -111.3963755094353, -12.71716556923403, -253.2405026152018, 91.98501314849605, 107.0290245389722, 145.7410223034311, 225.9171287042177, -270.9661433643252, 34.34619715889764, 29.16172444234719, -242.0466016987941, -295.5915603597952, 7.908116939854795, 246.9538063312591, 237.0297160902663, 34.98620193690984, 0.5018579461465084, 74.60263710455843, 40.8823907125869, -270.2649472099361, -237.4270417683935, 420.9434813072839, 75.84495534591451, -480.3749303809339, 38.32843103917728, 7.816783970940163, -136.0014331890798, -276.2736918596998, -467.4640801781806, -0.1728445392441212, -0.4394774567054014, -0.2536606335796698, -0.2105627500966949, 0.00667201332127304, -0.3370845130817427, 0.01964113559557179, -0.4101331359288344, 0.3936988319706632, -0.07790275177820716, 0.4736938946757903, -0.2997540192677425, -0.3899043676862047, 0.1691192563945051, 0.06055191371615598, 0.2481976154950437, -102.7850294788332, -85.25468215447488, -38.1461540537246, -2.851665578693964, -2.200365248041607, -84.94235574238851, -108.1632426400368, -100.1024183165333, -58.83603763956289, -64.25612111546531, -49.51489387272724, -22.23053286010245, -26.21154155221086, -42.52146470633133, -79.39303730386519, -85.26351097195391, -52.4374269837566, -40.74298942091107, -52.36300878225042, -37.26416609559817, -54.75992079432361, -49.305912797952, -52.73186163326118, -71.38311944264382, -22.47798290405196, -15.69614716430291, -13.95246809471812, -26.38038136780206, -29.83772909373096, -26.41900101145389, -17.064515478905, -24.8305561717807, -15.67874033134066, -4.346390102713161, 0.452802316765991, 0.6544171538540575, -2.1191887292016, -7.192769274962391, -7.10209857268401, -5.842537924099169, -4.035602616777104, -20.87962672515458, 1.445181529519437, -0.02488069681311832, 0.3184076269810243, 0.5037594050902156, -1.073245460815785, 1.958580792417383, 0.0983039883888811, -0.1203090299946764, -0.3632656735662677, -0.111958194809015, 0.006147185576216851, 0.05335143932763087, -0.4285215465019092, -0.445299350631097, 0.4436624464316584, 0.455161083934438, 0.2133497464067068, -0.4969072905354701, -0.1006043728443814, -0.379803541526107, 0.1245056081677348, -0.4214395945525913, 0.4631034652405157, -2.259280782924203, -4.429088271650086, -0.8120832197674546, -0.9578046437881537, -4.304300019968168, -2.486987932303379, 0.1331895160721644, -1.901199688124117, -1.734646766579372, 0.4122989775195194, -8.253288453494129, -3.744448589505834, -5.611645601935606, 0.91103315228766, -5.206478346462551, -5.124397481805529, -8.22449225508703, -18.28321053575222, -20.90889151362669, -15.44185290894648, -15.59578780924005, -13.12568591893913, -14.13738374596755, -45.86825255243643, -35.94940067539438, -50.8836740985846, -31.98088019973021, -38.56930509838118, -43.85306689333031, -45.07115044774849, -55.8945390357271, -62.00038082260525, -48.03783447553299, -44.44648585516155, -39.96435550218835, -52.21117293189102, -56.12543432722696, -105.3913108947169, -84.57482311192855, -77.24742497817174, -59.23858114546864, -40.8621883427185, -2.908863530037794, -3.401520859507616, -111.6999282419582, -102.3889075742811, -102.7054172675681, -0.2887633106618949, 0.2094675319779047, -0.4284853641542072, -0.1605734967908699, -0.4808725071981886, -0.4659344488596239, -0.08872123648818642, -0.2160514619741829, };



double sigmoid(double x){
    return 1 / (1 + exp(-1 * x));
}

#endif