#ifndef KPNN_H
#define KPNN_H

#include <math.h>


// use net Pnet => 128x16x2 => opS /egS outputs
#define N_INPUTS   (64 * 2)
#define N_HIDDEN   (8)


double OUTPUT_BIAS = -54.81459475113292;
double HIDDEN_BIAS[N_HIDDEN] = {394.453372249397, 357.344488477866, -322.765746322359, -261.0911627740035, 182.7735957809824, 135.4060084731172, -35.98693984199491, 177.2765971149018, };
double OUTPUT_WEIGHTS[N_HIDDEN] = {-44.25756616991048, 170.3348297977721, 5.313836943734064, 5.961364524463444, -99.26158811944904, 10.21003658795857, -28.56559069244156, 14.44558891627809, };

double HIDDEN_WEIGHTS[N_INPUTS * N_HIDDEN] = {374, 172, -286, 386, 195, 321, 27, 269, -42.19090375254783, -383.8229150477767, -64.06019185129674, 348.0149626084195, 33.40528872689073, -140.7689956827294, -121.4170904577482, -286.3339983629781, 278.0900503152643, -187.4494093130276, -356.6752333658636, -141.0817547093583, 322.7430349388674, 192.158881248372, -365.4948292963331, 350.9279685617036, -50.10668536027168, -10.67187090946016, -265.1899260827281, -34.84717377284728, 383.7941099830236, -237.5284865009279, 196.5441780530313, 15.76819779876045, 333.8898279382726, 302.667601422357, -14.96773494984967, -219.9982293601854, 224.5233423786917, -393.2738455534586, -351.2512535448272, 215.5376929294082, 71.62476251448221, -29.74130128099303, -196.7884638445832, 150.6440784955254, 223.1161418672702, 85.7897471330644, 268.7223248073278, -234.7190069075527, -69.94141146481203, 311.7951568547477, 23.8643496671805, -139.9389194513979, -252.4933916060095, -290.4193421161438, 255.3810009842454, 112.183699020299, 97, 39, 126, -278, 202, 367, 121, 137, 273, -294, 314, -252, 166, 9, 11, -158, 382.5115838394515, 221.4453349251729, 47.71782034153162, -140.5013851504314, 355.6091343268386, -82.32411993623786, 25.35717405943615, -113.480012039839, 285.1691311831036, 97.07012261267042, -204.1270719098668, -368.6815452584955, 206.4219262069915, -349.0007643878551, -208.2301385147267, 351.8046425618997, 83.87190326522834, -28.54583383958271, -326.3046912245069, 344.7885929661429, -73.42766878250951, 198.7473459136226, -278.8225302298373, -198.4064624238731, 306.0498995047971, 88.44464027462496, 402.5014929028436, 71.84536083374995, -311.2127562497438, 13.11462436668327, -45.72776475409333, -325.9705437616137, -165.7627454755236, -395.1894680872344, 379.8129475337491, -203.0651697172553, 375.1918966331282, -5.697254308901385, -263.5117950831482, 256.2239424298548, 155.2175758834996, -80.97314317646239, -72.21859311485505, -399.9857547229584, -24.55923345133318, 133.833484890691, 357.6399354841802, 104.2098949859172, 135, 82, 37, -334, -121, 159, 317, 229, -157, -35, 345, -65, 375, -97, -343, 256, 359.5042730939634, -340.1981610310303, 102.323346216981, 334.4795869845144, -310.2487329788408, 230.1023765430624, 213.4373683041377, -96.455496448763, -245.4949982470974, 163.3195567774081, 341.6010328162939, -252.263995011077, 348.7693515067231, 306.9369422641183, -109.732153577636, 96.12800457165385, -360.8092595654189, 325.929754262802, -208.1865009914274, 366.5679850707373, -261.5672927668475, -284.9308321814665, 188.5986311766037, -37.06371021611164, -278.0517681224648, 131.3531247246536, -36.01540423864105, -309.6963438690547, 92.13179924427254, -336.8732313311786, -3.381796860855174, 34.6248823867673, -305.1357762849835, -313.7626834933585, -385.7386609189233, -212.6631423604925, 295.2162204714983, -154.7886017903835, -291.5809785129078, 65.61772327937051, -387.3820110981824, -357.8639626177899, -154.459924174604, 345.9188559593154, -16.34444983286377, 125.2999791345978, -332.3080935434289, 6.486604123698978, -311, -150, -45, -187, 400, 182, -173, -286, -94, -176, 252, 29, -122, -155, 109, -33, -71.94071527455424, -230.0867614746905, -209.6781194346568, 265.3707971313289, 14.39697398700186, -106.8485123565636, 377.5940325160036, -328.8958101710253, 382.5614054840106, -176.8276712028718, -385.3725130398625, -35.61362511066667, -4.541676374070972, -320.8153352861348, 368.839802776245, 82.16845435794505, 383.7316231036075, 376.2879741619401, -53.17586863163394, 376.8409048160664, 162.363040121322, 171.0099621343643, -313.018094691417, 110.1635479043457, 401.0962077955173, -0.8217191679880471, 199.9506198374006, 328.1035013163959, 245.5215570833507, -100.4980267408506, -103.7130217621353, 212.3961052129301, 79.41770033226707, -268.1325034278747, -256.2858585232926, 118.8978936076095, -310.5147050010842, -292.0242268653995, 184.6170371470183, -332.3666702527913, 382.0783931748389, 212.5198535754799, -326.6688331927814, -30.76592176017003, -84.49972018345619, 101.7425801156018, 118.5112436121348, -86.85942804373008, 51, -373, 312, -195, -157, 47, -38, -165, -367, -253, -248, -89, 41, -316, -283, 150, 235.7329732950707, -165.0419976074167, -133.6826015834966, -30.45458237631973, 377.3705712281399, 96.26923010534551, -336.5372259843038, 344.8889939056853, 359.0559509248523, -286.1528337993145, 340.3019442155862, -143.144233703745, 214.1751995539465, -314.7340797265331, -205.2568409086589, -142.9611162306335, -284.8431924705499, 161.3892096477839, -299.4416253552365, -397.8852688640134, -196.3357149795245, -287.6215019995286, -169.5167242910949, 278.1832304269494, -137.0831940591472, -358.7406188706751, -195.9181765419773, -54.59903150349015, 168.7762719457019, 364.8082513636948, 147.5760514055212, -333.2167828662359, 251.8650642562148, 64.29902536981812, 36.87124560333807, 232.9749465352759, -233.1200741139014, 100.8906975136995, -175.9888468924644, -295.4478750155039, 221.6878107215915, 219.9803863198464, -33.16549473317203, -330.7290289002984, 300.8195976751762, -185.970233314091, 370.2831887976014, 62.62823653969365, 375, 122, 64, 230, 236, -52, 118, -303, -369, -36, -305, 198, -73, 242, -85, -225, -95.30322945154957, 348.7507327516762, -396.9423879768256, 66.94476986909737, 46.18515294629005, 273.9209719519574, -180.4390761338566, 318.4453407623009, 87.5124799492939, -165.9770631899858, 33.70327736618826, -355.3265641910336, 49.94576786798385, 2.592049498889813, -243.9547309512207, -326.4651392022051, -272.0423850339485, -136.6979837902739, -51.93644242965081, 356.0736392695287, 214.8789928906908, -334.4923042874591, 102.0660583474524, -102.8368772360211, 32.40826379546283, -155.359972996105, 137.9453269734784, 7.455779964419027, -313.0351588293166, -349.5007468736216, 182.3783745276339, -361.2857383029101, -397.7980520622852, -174.2708303156584, -235.0267352361096, -307.7291121564383, 153.7359485387084, -24.40265516738194, 45.17025615946199, 292.8752413153712, 205.7636514209425, -309.3203903899539, 335.7282276942894, 309.1995986308229, 86.9097272697158, 139.6696054984216, 34.16189606266861, -133.7447388232068, -393, 379, -173, 221, -354, -22, 161, -274, 224, -100, -220, -40, -47, 361, 1, -45, 231.6391155956358, -190.5799703071731, -304.7811909129307, -355.9194566764225, 185.7355923767229, 173.4908069717868, 352.5821493216722, -345.8711518553995, 282.8699236113275, 273.3251600396737, 348.176124303952, 403.2290079945249, -316.6494971239279, -12.72266817792954, -137.3232378241722, -316.2008333821498, -29.12989452871005, -249.9800243056313, -58.20580684981082, -339.9014416174238, -234.0167630726859, -305.2028393732601, 221.3443821986982, 25.68330880436836, 0.9584867103368423, -386.6177765095765, 409.5731971723201, 350.5167369087449, 19.83148424287927, -348.6583581485933, 354.3344884536982, 301.1482539489545, -141.1140573690739, -340.9936852362439, 352.5522892555911, 92.94558501674592, -131.7082064738953, 282.675049863094, 131.8202405227791, 170.6207788367979, -194.4414267421275, 80.43179978233199, 169.610765511807, -133.6734078109222, -343.0490174498386, 84.28894199391738, -59.79603009133444, -334.2761332539303, 225, -75, -287, 392, 25, -14, 32, -376, -9, -321, 24, -395, -272, -21, -44, -370, -314.6462837341653, -98.55769239019341, 114.4171672260259, -53.73833836134358, -218.8769283067379, -160.4574303365424, -283.7622365033778, -365.4127302195403, 316.8263716864428, -62.42144691135191, -94.87396069971919, 17.19902072848945, -382.4950657445891, -112.6548688233452, -270.6863467951743, 239.7306975322129, 219.0246519105648, 286.2221407126247, -121.0682786903981, -163.788598353898, -114.182890687014, -39.81493592045426, 307.6335841887748, 272.92488774184, 42.17250199015096, 383.9127672710067, -68.79600088573537, -183.3982684367574, -39.2172035285564, 285.761423495782, -150.2487916966006, -315.253045339402, 232.8423168545274, 361.8584753063208, 52.91101327488322, -406.0260183463639, -192.1950965722552, -197.4444218678082, 78.18917510204996, 173.6731543117805, 137.5561313866313, 395.5944738915945, 240.9458512169919, 156.2533083511379, 313.8413704106438, 371.4450156089719, -349.7542626129939, 144.0371651655369, 256, 362, 19, -266, -79, 374, 51, 7, 353, 21, 221, 359, -101, 112, -353, 174, 94.85789158684123, -260.9932981869707, -160.0728562251778, -90.85979424052606, -67.28149458889754, 333.0132230184182, 132.0828183115753, 119.3486150004722, 296.9382630286789, -26.89250517780521, 323.4815067570143, 238.863687404805, 360.7650711014064, 345.1812120202688, -373.1612031348829, 219.6345298047385, 293.5326863979867, 38.662800891663, 7.264278544612211, 277.8563361818217, -334.6692281235935, -345.7950163343061, -119.0744608760439, -373.1842680976044, -276.7974435935027, 139.1798954656447, 370.1269271177913, -322.3419670560594, -144.3067039502425, 62.64507876597202, 251.9691419598959, -21.02926430399806, 191.3835562097539, -324.6426035663853, 286.5747969791413, 167.4334412871721, 393.3247377041972, -335.1186260749419, 331.9482571036018, -43.74887579036515, 17.83692708262337, 240.0363865951244, -207.8720537664502, -361.2439357476018, -170.6660704794817, 263.4151869414655, 259.691747330566, 178.764430255263, -99, 315, 52, -390, 20, -21, -377, 145, -274, 42, 216, -16, 157, 61, 359, -398, 137.672768907649, -102.6870157932884, 179.9621008319927, -218.7797258893303, -42.21455378286633, -238.067721673463, 138.4566846043905, 25.22941235519073, -394.7350419250968, 330.2580939342412, 57.74688953209404, -166.4162860518539, -157.7941092216024, 370.7602718618193, -387.6008486251459, 141.4562422910377, 282.4637559762145, -279.3254909563357, -193.5572020866488, -91.50334424698538, 90.78970686885859, -179.0911988911698, -348.6442752657885, 220.8676562436429, -87.71852773914694, 276.4316990555119, 251.1588340354748, -325.0867277478129, 386.1056416537986, 214.5872087499188, -334.5774044563211, 122.3161546383558, 159.4775252595414, -101.8825161286142, -63.05877353098148, -275.073776647201, 57.73880748462508, -330.7138105146391, -188.5010778371502, -293.9179396429108, 68.53252429764269, 259.3433202820352, 390.9474576549264, 296.6600421984887, -119.8299291804739, 66.75820047590243, -316.3345822236212, -237.3575905450242, 168, -112, -295, -139, 110, 203, 127, 70, -283, -23, 138, -308, 234, -143, -148, -13, 138.2681948317313, 188.6772295168411, -257.8166749012217, 265.7945069235508, 267.9071631321722, -71.29343224888514, 372.4550012215111, -73.59245757204538, 239.0287718886956, 350.5068087084939, -186.9549856952615, -310.6689635946271, 29.59031099117339, -84.18539920889933, 284.4281191706689, 234.1768106104788, 211.9999002744616, 396.875225176415, 138.2445887500606, 359.3974036069868, -160.2792654196448, -138.5175729757517, 21.15629067554242, -48.08090956113548, -113.5863038155534, 216.7217931353042, 59.62723564730155, 164.9830086343423, -328.0726434469796, -48.81994172623784, -246.1895339709003, -131.1956161586686, -248.3300831617354, 355.4038157162062, -262.0046210620313, 69.4123307862391, 332.4745118507258, 149.9406890942479, 392.9275407171791, 153.0339604162534, -234.9646657851373, 263.1634231489771, -104.3252722765484, -172.2237740941934, 224.6879109279207, 231.4164286069123, -339.7688026473031, -326.9211428378307, -125, -150, 80, 120, 118, -293, -317, 58, -31, -215, -168, 39, 139, -359, -42, -67, 43.87800503128473, 88.37554492437107, 396.2875598780799, -26.29454925165382, 288.9848030428506, 35.13008680180612, 178.6138636967376, -348.5449316050246, 343.3756959014097, 124.9611330205121, 328.0526829757189, 170.8350527760554, -44.21631197900437, 33.34689804207954, -107.4337546424768, 226.4188717978448, 284.498270259353, 365.4653648855525, -57.19676286967717, -354.7545277497028, 130.782568830936, -319.6284829794215, 102.5342196529041, -301.4853560105602, -135.1891982725126, -12.18913105947837, -214.463837322141, -397.0808971305972, 23.07215185656665, 139.265606460492, -61.96495630774726, -337.7917444887584, 274.7365213716026, 376.7266795550594, -299.5813080278145, -198.9108456073354, 19.96382607010409, 268.5100844549846, -149.5288105684371, -36.6932804055003, -12.2436129339781, 236.341738884999, 185.5086797833195, 349.5305356616019, -137.7919541518755, -322.159494037719, -168.617003741826, -243.3567154019772, 102, 171, -191, -169, -103, -36, 377, 161, 351, 209, -189, -374, -49, -205, 144, 279, -224.4075281301611, 229.145587199797, -306.8664360620083, 185.1309025123195, -248.1482342789274, -407.7212862552383, 182.4006858248575, 133.3100751793893, 225.5948425442257, -366.420837221859, -260.1612426162943, -280.0593180587948, 143.6888835599704, -45.63876595529138, 331.4940169297891, -154.9290036993334, 167.3303517714664, -269.5705909895826, -264.494556488987, -337.2131532263746, -257.7581805562306, 168.552000274641, -111.3880094224985, -295.572713879598, -25.2601515096994, 93.7557856707336, 169.7733163756659, 331.0694682094627, 285.100533011887, -81.02759792927542, -149.2007873667691, -333.2749784512052, 203.7707711363992, -49.60217339151738, -94.35461695545092, 361.1122576661513, -42.37140667801155, 160.4019283348676, -242.7932476683198, 263.3524051814863, -155.1251631610864, -95.38690336030858, 37.02669010985611, -388.2946478660723, -83.18214680296322, -21.73213225179439, 326.7264549771132, 150.3639541808775, -227, -325, 235, -70, 246, 173, -314, 274, -126, 267, -148, 217, 241, 108, -64, -301, -342.1939206682051, -107.1503711207406, -335.7394629195506, -329.5267507644654, -343.6826529895538, 277.5141092246336, 336.5106651850996, -99.12168154597981, -214.2968102310469, -25.17318555722073, 365.5823844623715, 104.4737769934716, 3.213742250725809, 292.4377386724145, 304.452595451718, 179.4089169311142, 359.4626955036904, 142.0613664413877, 158.0515985813337, -143.0081177708223, 350.4571027374092, 238.706675977617, 180.9983618478988, -170.4190476317448, -251.5348804556007, -374.5807698987115, 85.2656454008947, 40.24017136640283, 133.1479555315562, -375.8591304190584, 140.2908583128882, -156.0237443797531, -85.36055788748237, -154.4467316560341, 349.7695199135786, -372.0880185041822, -288.6776414174209, -58.62488195261427, -65.31471391268154, -107.7191234432199, -30.32672685011486, -114.4317524673204, 48.9145979723835, 382.609766255408, -211.4138460395353, -46.76890823082316, 141.723707679133, 192.295676053283, 155, -75, 114, 114, 216, -103, -6, 374, 380, -309, -331, 122, -277, 214, 21, -303, -350.8558356354131, -11.42074242867787, -277.7451205066272, -195.3169356993064, 344.0734850357705, -295.8121013592967, -232.9417096007082, 370.9240741932742, 19.80693917265321, -129.5395102655853, 348.6594412060944, -159.0429122961477, -89.95893653560488, -218.768423792152, 88.38990521652615, -338.9684454805371, -240.1663945905398, 254.104991046876, -182.8282235079139, 369.5860417145776, 194.8894165831781, 203.6534022783342, -13.40582139927373, 167.3471075041641, -51.7609057167284, 68.1692344608051, 358.2013319285405, -286.4965843027644, -127.0186040995902, -27.02737054463013, -190.3317921737776, 391.6830210410061, 12.41748092156243, -59.96648392836631, -202.6229245259007, -392.4528757809952, 50.06864579834852, -392.526891558224, 379.1147449110306, 100.2263521384209, -107.0145006176761, 340.0621156441468, -11.64585759467698, 186.4903069578061, 165.6668588477708, 129.9097119880014, -110.6467294885708, 316.9185416214692, -16, 102, 283, -216, 357, 320, 363, -97, -375, -39, -332, -104, 331, -118, 334, -61, -126.9150998988244, 174.873680795159, 389.7625514628903, -32.72478206229619, 187.7207334475432, 363.833402873367, 113.4690469625801, 125.3639798503637, -52.74482418306646, -296.1615085945726, -89.94540255628065, -283.7663383460622, 228.8598581623258, 197.1028326249929, -370.5100545756458, 264.4811703452695, 353.6219227182357, -46.63735464261216, -358.4135224954154, -49.01011921243159, -120.1311439843735, 57.03220685854077, -99.44605592401135, -96.21255166407893, -384.3434950161932, -25.1566957602604, -145.3198152814328, -3.62055918665195, -100.5656473448264, 228.8855982472787, -14.55295664030515, 163.2093056709018, 6.807961068575499, -34.01738741275919, 193.4303236479316, 224.8049094432404, 387.7777048943434, -99.98179450415149, -59.49253920499855, -60.6611673276567, -360.5138103022592, -84.40007271076807, 48.61173885329045, -71.52309608437173, 149.1217483490673, -276.7122904084628, -204.7520165489687, 106.5458539833196, 89, 276, -336, 18, -69, -33, -28, 395, };


double sigmoid(double x){
    return 1 / (1 + exp(-1 * x));
}

#endif